svm_type c_svc
kernel_type linear
nr_class 2
total_sv 1000
rho 0.25965898319964253
label 1 -1
nr_sv 500 500
SV
0.03300855938183411 0:5.937366e-01 1:-4.898202e-01 2:3.886701e-01 3:2.598933e-01 4:7.194651e-01 5:-3.562077e-01 6:1.438896e-01 7:-4.980323e-01 8:-8.021358e-01 9:2.092264e-01 10:8.884550e-02 11:-3.042558e-01 12:-7.346987e-01 13:-2.592773e-01 14:5.749008e-01 15:-3.862104e-01 16:3.155454e-01 17:5.070981e-01 18:5.750700e-01 19:-6.631629e-01 20:3.962636e-01 21:-7.549776e-01 22:4.885832e-01 23:4.047702e-01 24:-7.213471e-01 25:9.867581e-01 26:1.758899e-01 27:8.052067e-02 28:3.206335e-01 29:8.340668e-02 30:-6.883502e-01 31:6.153832e-01 32:3.221756e-01 33:-7.553842e-01 34:2.124785e-01 35:6.711003e-01 36:9.233748e-01 37:-4.395463e-01 38:5.373467e-01 39:-7.228849e-01 40:5.616889e-01 41:1.337927e-01 42:5.116669e-01 43:3.308176e-01 44:-7.366778e-01 45:-6.708460e-01 46:8.598529e-01 47:-6.736849e-01 48:5.025500e-01 49:-5.208310e-02 50:-7.726486e-01 51:-3.352523e-01 52:4.136253e-01 53:-6.178310e-01 54:6.449056e-01 55:-5.505804e-01 56:6.039774e-02 57:4.586061e-01 58:2.926602e-01 59:-3.236985e-01 60:-8.039504e-01 61:6.124818e-01 62:-4.305107e-01 63:5.917035e-01 64:5.442693e-01 65:7.020728e-01 66:5.445754e-01 67:7.631840e-01 68:2.834342e-01 69:7.015512e-01 70:-5.065904e-01 71:6.789222e-01 72:4.390990e-01 73:4.586849e-01 74:5.569433e-01 75:-4.999594e-01 76:6.956235e-01 77:-5.848678e-01 78:5.194999e-02 79:8.014391e-01 80:-4.830449e-01 81:4.733402e-01 82:-5.651602e-01 83:-7.272548e-01 84:6.322256e-01 85:3.725364e-01 86:-1.924483e-01 87:7.732307e-01 88:1.049318e-01 89:-4.605906e-01 90:5.521090e-01 91:-4.587456e-01 92:7.476803e-01 93:3.806762e-01 94:-6.100717e-01 95:3.488699e-01 96:5.586299e-01 97:2.744504e-01 98:5.235109e-01 99:-7.430318e-01 100:6.169891e-01 101:-7.691161e-01 102:-6.566666e-01 103:-7.891185e-01 104:-4.444520e-01 105:7.363869e-01 106:6.737433e-01 107:3.626245e-01 108:3.856162e-01 109:-1.894293e-01 110:-2.753801e-01 111:6.196796e-01 112:2.262463e-02 113:-8.317341e-01 114:5.065550e-01 115:1.830302e-01 116:-8.564637e-01 117:3.336575e-01 118:6.548324e-01 119:-3.721740e-01 120:-5.775523e-01 121:2.325532e-01 122:-3.123354e-01 123:3.760970e-01 124:3.642588e-01 125:6.706014e-01 126:-7.898373e-01 127:-3.500810e-01 128:-2.970115e-01 129:5.602183e-01 130:-2.143139e-01 131:-9.901787e-02 132:-2.489879e-01 133:-3.357194e-01 134:-3.474557e-01 135:4.182096e-02 136:8.321186e-01 137:6.540541e-01 138:-2.934962e-01 139:1.838419e-01 140:-6.977222e-01 141:3.293766e-02 142:5.636288e-02 143:-8.658775e-01 144:-4.159132e-01 145:5.150374e-01 146:2.095845e-01 147:-8.229729e-01 148:-3.934364e-01 149:-4.996499e-01 150:-6.399862e-01 151:-3.894432e-02 152:3.688016e-01 153:-5.511064e-01 154:-3.460115e-01 155:-3.291481e-01 156:-7.882767e-01 157:-7.904612e-01 158:8.292109e-01 159:2.157351e-02 160:-6.224969e-01 161:-3.205982e-01 162:-1.739688e-01 163:-6.177632e-01 164:-3.656606e-01 165:-9.860382e-02 166:1.179745e-01 167:5.784283e-01 168:-1.863415e-01 169:-4.921168e-01 170:-1.110299e-01 171:6.994652e-02 172:-8.086083e-01 173:6.295983e-01 174:-7.551893e-01 175:-1.094821e-01 176:5.726802e-01 177:-5.239742e-01 178:7.433407e-01 179:-2.886260e-01 180:7.933679e-01 181:2.815104e-02 182:-3.078379e-01 183:2.022810e-01 184:-6.180258e-01 185:4.756343e-01 186:-5.489210e-01 187:-7.480163e-01 188:-5.744314e-01 189:4.864693e-02 190:6.355843e-02 191:-6.969340e-01 192:-4.837577e-01 193:6.128549e-01 194:-2.951633e-01 195:4.152252e-01 196:-1.088548e-01 197:2.727307e-01 198:1.475963e-01 199:7.708488e-01 
0.05916806622440318 0:6.854206e-01 1:-2.600817e-01 2:4.777896e-01 3:3.349203e-01 4:5.288167e-01 5:-1.729647e-01 6:4.659768e-02 7:-6.483282e-01 8:-6.079726e-01 9:-2.002315e-01 10:-2.613661e-02 11:-3.338802e-01 12:-6.518048e-01 13:3.552704e-01 14:3.900057e-01 15:-4.575630e-01 16:4.417233e-01 17:2.438113e-01 18:4.740438e-01 19:-7.302345e-01 20:6.008547e-01 21:-7.949015e-01 22:4.882805e-01 23:4.566917e-01 24:-8.120264e-01 25:1.956473e-01 26:5.646821e-02 27:-2.593896e-01 28:5.415243e-01 29:3.134400e-01 30:-8.135203e-01 31:8.692180e-01 32:6.299289e-01 33:-5.267440e-01 34:1.191829e-01 35:6.528589e-01 36:7.149946e-01 37:-5.204465e-01 38:6.843192e-01 39:-7.975590e-01 40:3.217448e-01 41:2.760390e-01 42:5.342722e-01 43:6.205749e-02 44:-2.922429e-01 45:-2.699521e-01 46:4.352898e-01 47:-4.113069e-01 48:6.798664e-01 49:-6.399014e-01 50:-2.626980e-01 51:-1.864525e-01 52:3.200964e-01 53:-6.077919e-01 54:9.927064e-02 55:-6.279571e-01 56:2.832582e-01 57:1.151272e-01 58:8.497724e-02 59:-4.029127e-01 60:-5.047337e-01 61:3.942156e-01 62:-5.767296e-01 63:5.719135e-01 64:6.688674e-01 65:1.064005e-01 66:9.780559e-01 67:6.200189e-01 68:3.665726e-01 69:6.336298e-01 70:-4.806091e-01 71:6.389210e-01 72:1.003133e-01 73:3.666917e-01 74:4.433720e-01 75:-5.875898e-01 76:6.965300e-01 77:-2.012975e-01 78:5.666765e-01 79:8.288168e-01 80:-4.613504e-01 81:5.221625e-01 82:-5.200530e-01 83:-7.519574e-01 84:4.132910e-01 85:-4.059754e-02 86:-1.681153e-01 87:6.593997e-01 88:-3.500838e-02 89:-2.971539e-01 90:4.870204e-01 91:-1.745045e-01 92:6.743397e-01 93:5.429186e-01 94:1.261914e-01 95:5.157607e-01 96:6.459796e-01 97:6.722327e-01 98:1.053958e-01 99:-5.395509e-01 100:8.554373e-01 101:-7.131586e-01 102:-6.989232e-01 103:-7.079742e-01 104:-6.653148e-01 105:6.895730e-01 106:8.618982e-01 107:2.627363e-01 108:7.204076e-01 109:-3.065879e-01 110:-2.686009e-01 111:2.377120e-01 112:-2.963340e-01 113:-6.084282e-01 114:7.391652e-01 115:2.295149e-01 116:-5.294075e-02 117:1.269345e-01 118:6.235772e-01 119:-1.575830e-01 120:-5.320481e-01 121:9.219750e-02 122:-6.291518e-01 123:5.856139e-01 124:5.497779e-01 125:4.713282e-01 126:-6.933135e-01 127:-7.036093e-01 128:-5.484514e-01 129:1.146572e-01 130:-6.160458e-01 131:2.240726e-01 132:-3.930138e-01 133:-2.156884e-01 134:-4.150923e-01 135:-4.642836e-01 136:8.259840e-01 137:7.437228e-01 138:-4.360919e-01 139:4.008273e-02 140:-7.276064e-01 141:-7.814085e-02 142:-3.182130e-01 143:-6.315061e-01 144:-4.189205e-01 145:6.318202e-01 146:1.374815e-01 147:-6.316501e-01 148:2.335693e-01 149:-4.318025e-01 150:-4.661934e-01 151:-4.487458e-01 152:6.919151e-01 153:-3.030269e-01 154:-7.703022e-01 155:-8.934048e-03 156:-3.407670e-01 157:-8.024556e-01 158:8.109833e-01 159:-2.475379e-01 160:-5.793999e-01 161:-5.817347e-01 162:5.636948e-02 163:-7.722340e-01 164:-3.502170e-01 165:-4.092316e-01 166:-3.078892e-01 167:3.581910e-01 168:-3.325731e-01 169:-3.525252e-01 170:-7.292783e-01 171:-2.205439e-01 172:-6.633626e-01 173:4.633508e-01 174:3.655346e-01 175:1.604787e-01 176:3.354684e-01 177:-8.094711e-01 178:7.066271e-01 179:-6.039425e-01 180:6.238336e-01 181:4.157972e-01 182:-9.057630e-02 183:1.418896e-01 184:-6.956347e-01 185:5.650519e-01 186:-5.473106e-01 187:-7.369421e-01 188:-7.577585e-01 189:6.197591e-01 190:-1.565232e-01 191:-8.376205e-01 192:-7.856659e-01 193:6.054136e-01 194:-6.598708e-01 195:3.010518e-01 196:3.021233e-01 197:1.077815e-01 198:5.355685e-01 199:7.691750e-01 
0.11351915946420243 0:5.243626e-01 1:-2.784607e-01 2:3.535748e-01 3:7.324994e-01 4:8.952176e-01 5:-4.332493e-01 6:-6.346171e-01 7:-5.705168e-01 8:-5.162498e-01 9:3.412569e-01 10:-1.861326e-01 11:-4.241980e-01 12:-6.364106e-01 13:7.585916e-01 14:4.662816e-01 15:-7.317402e-01 16:7.745167e-01 17:4.441545e-01 18:7.790531e-01 19:-6.427215e-01 20:5.472105e-01 21:-8.031986e-01 22:7.507401e-01 23:3.427193e-01 24:-6.169035e-01 25:7.123516e-01 26:7.893024e-01 27:4.280544e-01 28:5.681889e-01 29:4.124784e-01 30:-4.713226e-01 31:6.934455e-01 32:6.468859e-01 33:-8.087667e-01 34:-3.999882e-01 35:6.802050e-01 36:7.938854e-01 37:-1.264524e-01 38:4.127146e-01 39:-7.222199e-01 40:6.130646e-01 41:-1.685612e-01 42:4.250957e-01 43:-1.185389e-01 44:-2.278360e-01 45:-3.410224e-01 46:6.038251e-01 47:-1.526356e-01 48:6.825688e-01 49:-3.616776e-01 50:-2.699347e-01 51:-6.227219e-01 52:7.271168e-02 53:-7.056780e-01 54:5.661786e-01 55:-5.285393e-01 56:5.418523e-01 57:6.550572e-01 58:-3.369269e-02 59:-3.895372e-01 60:-7.614798e-01 61:4.767490e-01 62:-5.274906e-01 63:5.270476e-01 64:6.009613e-01 65:8.052170e-02 66:7.980180e-01 67:6.491233e-01 68:4.181042e-01 69:6.915780e-01 70:-7.480524e-01 71:8.387114e-01 72:-3.286506e-01 73:6.840797e-02 74:4.520370e-01 75:-7.343282e-01 76:5.459893e-01 77:-3.578795e-01 78:1.103968e-01 79:8.379443e-01 80:-5.416654e-01 81:7.036643e-01 82:-7.155718e-01 83:-7.514599e-01 84:5.411488e-01 85:3.752406e-01 86:-5.049313e-01 87:6.862737e-01 88:-3.274580e-01 89:-4.803259e-01 90:8.837261e-01 91:-4.111243e-01 92:5.386035e-01 93:6.338281e-01 94:-1.150949e-01 95:-2.190492e-01 96:4.099650e-01 97:-3.641193e-03 98:2.324110e-01 99:-7.101570e-01 100:6.704286e-01 101:-7.717679e-01 102:-6.062378e-01 103:-4.519888e-01 104:-6.923426e-01 105:5.853928e-01 106:7.687277e-01 107:5.695901e-01 108:6.607359e-01 109:-5.356316e-01 110:-8.633244e-02 111:1.443388e-01 112:-1.081789e-01 113:-7.213915e-01 114:4.702915e-01 115:-9.397868e-02 116:-6.839976e-02 117:2.617738e-01 118:7.856221e-01 119:-9.139356e-02 120:-7.560485e-01 121:6.788626e-01 122:-6.083369e-01 123:5.793219e-01 124:9.771300e-02 125:8.327573e-01 126:-7.581069e-01 127:-7.492562e-01 128:-6.048860e-01 129:4.948491e-01 130:-7.061009e-01 131:-1.184200e-01 132:-3.991968e-01 133:-4.791037e-01 134:-2.795800e-01 135:1.962944e-01 136:7.688757e-01 137:8.803941e-01 138:-6.939196e-01 139:1.507631e-01 140:-5.290321e-01 141:-1.098343e-01 142:-5.048533e-01 143:-4.826779e-01 144:-3.953434e-01 145:9.034011e-01 146:5.779013e-01 147:-6.138006e-01 148:5.443626e-02 149:-6.902049e-01 150:-6.227406e-01 151:-9.975315e-02 152:5.204208e-01 153:-2.810376e-01 154:-5.450696e-01 155:-2.644871e-01 156:-9.116583e-02 157:-7.393940e-01 158:7.283791e-01 159:3.681705e-01 160:-6.278043e-01 161:-7.513872e-01 162:-4.460609e-01 163:-5.627334e-01 164:-5.038132e-01 165:-4.875364e-01 166:3.493117e-02 167:6.493993e-01 168:-5.247727e-01 169:-8.401151e-01 170:-2.870161e-01 171:4.573354e-02 172:-5.502196e-01 173:7.434895e-01 174:-2.006936e-01 175:-9.059542e-03 176:5.540515e-01 177:-6.674587e-01 178:6.016351e-01 179:-7.019084e-01 180:6.656993e-01 181:1.623208e-01 182:-1.824530e-01 183:-3.537046e-02 184:-6.848543e-01 185:5.085596e-01 186:-4.932356e-01 187:-7.505206e-01 188:-7.945771e-01 189:6.520502e-01 190:-6.590999e-01 191:-6.244386e-01 192:-8.419920e-01 193:7.032991e-01 194:-7.908305e-02 195:5.787292e-01 196:3.063676e-01 197:-3.029627e-02 198:4.121067e-01 199:7.327973e-01 
0.01798715707072529 0:7.328912e-01 1:-1.336427e-01 2:5.053788e-01 3:6.171684e-01 4:5.768111e-01 5:-5.189482e-01 6:1.861704e-01 7:-5.780628e-01 8:-4.462178e-01 9:-1.702118e-01 10:-1.754362e-01 11:2.039763e-02 12:-7.294255e-01 13:8.962510e-02 14:3.541917e-01 15:-3.717881e-01 16:5.919396e-01 17:5.604176e-01 18:5.275872e-01 19:-5.989269e-01 20:5.167382e-01 21:-8.137758e-01 22:4.386908e-01 23:4.589046e-02 24:-6.750922e-01 25:3.123341e-01 26:-2.039366e-01 27:1.114755e-01 28:3.258590e-01 29:6.218294e-02 30:-6.202427e-01 31:7.040573e-01 32:7.592309e-01 33:-5.787479e-01 34:2.744593e-01 35:7.363340e-01 36:7.244619e-01 37:-1.244280e-01 38:4.098203e-01 39:-5.565069e-01 40:5.369676e-01 41:1.316516e-01 42:6.955652e-01 43:4.469707e-01 44:-1.449619e-01 45:-2.879505e-01 46:6.212723e-01 47:-2.491949e-01 48:7.363121e-01 49:-7.172281e-01 50:-5.657577e-01 51:-1.659423e-01 52:-1.860622e-01 53:-9.300243e-01 54:3.521390e-01 55:-5.768464e-01 56:1.633308e-01 57:5.703752e-01 58:-1.554954e-01 59:-2.925548e-01 60:-8.253995e-01 61:5.326224e-01 62:-6.910659e-01 63:6.745698e-01 64:5.764979e-01 65:1.156912e-01 66:6.996294e-01 67:7.377610e-01 68:6.060690e-01 69:8.547657e-01 70:-5.019765e-01 71:4.565823e-01 72:-8.379580e-02 73:4.360269e-01 74:4.744861e-01 75:-7.528331e-01 76:6.306215e-01 77:-3.949993e-01 78:7.147728e-01 79:7.325405e-01 80:-6.401629e-01 81:8.438937e-01 82:-5.212968e-01 83:-7.396478e-01 84:6.082567e-01 85:2.900234e-02 86:-5.273485e-01 87:9.208882e-01 88:2.518190e-02 89:-4.727025e-01 90:6.637187e-01 91:-7.495398e-01 92:6.838166e-01 93:4.212845e-01 94:-1.777670e-01 95:3.888879e-01 96:5.640344e-01 97:4.969267e-01 98:6.534371e-01 99:-4.270198e-01 100:7.413499e-01 101:-6.509156e-01 102:-5.467128e-01 103:-8.119455e-01 104:-4.752673e-01 105:7.645421e-01 106:8.632429e-01 107:3.587815e-01 108:3.164849e-01 109:-2.341941e-01 110:-3.212755e-01 111:2.588861e-01 112:2.165253e-01 113:-5.527506e-01 114:5.548591e-01 115:-3.170229e-01 116:-1.185628e-01 117:1.482002e-01 118:6.262581e-01 119:5.433113e-01 120:-4.917142e-01 121:5.597494e-01 122:-6.797102e-01 123:5.312080e-01 124:3.602352e-01 125:7.685997e-01 126:-5.366809e-01 127:-5.626578e-01 128:-3.804482e-01 129:4.386613e-01 130:-7.065583e-01 131:-2.637752e-01 132:-4.252277e-01 133:-6.631301e-02 134:-6.171832e-01 135:2.704198e-01 136:6.549998e-01 137:5.485349e-01 138:-3.171757e-01 139:2.572576e-01 140:-5.833894e-01 141:-3.677311e-01 142:2.047611e-01 143:-5.416546e-01 144:-5.515194e-01 145:5.399751e-01 146:1.232404e-02 147:-6.778638e-01 148:2.502095e-01 149:-5.608028e-01 150:-6.224797e-01 151:1.034653e-03 152:1.216725e-01 153:-1.028454e-02 154:-4.504839e-01 155:5.499354e-01 156:-4.566064e-01 157:-7.900550e-01 158:6.091429e-01 159:-2.706928e-01 160:-6.305143e-01 161:-4.285138e-01 162:1.336890e-01 163:-6.354744e-01 164:-3.152132e-01 165:-5.182156e-01 166:-5.436071e-01 167:7.834984e-01 168:-4.580123e-01 169:-6.717723e-01 170:-1.000000e+00 171:4.282603e-01 172:-5.103549e-01 173:5.779574e-01 174:-6.216499e-03 175:3.602621e-01 176:4.928456e-01 177:-6.706046e-01 178:4.090173e-01 179:-5.311619e-01 180:9.071533e-01 181:8.194058e-01 182:-1.900897e-02 183:4.293014e-01 184:-6.684122e-01 185:6.024683e-01 186:-5.963717e-01 187:-6.242267e-01 188:-9.510337e-01 189:1.205451e-01 190:8.750094e-02 191:-9.076808e-01 192:-8.876246e-01 193:7.519869e-01 194:-1.784632e-01 195:1.000000e+00 196:-3.571530e-01 197:2.395082e-01 198:2.748266e-01 199:7.930044e-01 
-0.10151923201792512 0:7.184904e-01 1:-2.236640e-01 2:-1.387376e-01 3:1.897157e-01 4:5.426428e-01 5:-4.985226e-01 6:-2.697233e-01 7:-5.745640e-01 8:-5.160524e-01 9:-1.850006e-01 10:-4.044965e-01 11:-3.387725e-01 12:-6.844380e-01 13:5.747137e-01 14:2.090160e-01 15:-3.732860e-01 16:5.835661e-01 17:2.537269e-01 18:8.783221e-01 19:-6.582242e-01 20:1.922802e-01 21:-6.795878e-01 22:2.552937e-01 23:3.996328e-01 24:-6.744806e-01 25:8.641835e-02 26:4.261729e-01 27:3.087216e-02 28:7.356940e-01 29:1.853241e-01 30:-7.244656e-01 31:7.413625e-01 32:4.831737e-01 33:-6.054351e-01 34:1.289926e-01 35:8.385902e-01 36:8.384617e-01 37:-2.510577e-01 38:3.075554e-01 39:-6.889357e-01 40:6.224179e-01 41:6.500012e-02 42:2.216210e-01 43:2.071052e-01 44:-1.000000e+00 45:-6.910558e-01 46:5.503393e-01 47:-5.822105e-01 48:3.449048e-01 49:-3.375785e-01 50:1.245583e-01 51:-1.800767e-01 52:2.428311e-01 53:-4.288912e-01 54:3.811093e-01 55:-4.535049e-01 56:4.044401e-01 57:6.383350e-01 58:2.564976e-01 59:-5.404082e-01 60:-7.540315e-01 61:5.231880e-01 62:-3.990193e-01 63:6.982193e-01 64:5.778644e-01 65:1.508084e-01 66:5.859502e-01 67:8.442725e-01 68:3.095616e-01 69:7.081974e-01 70:-6.001562e-01 71:6.467389e-01 72:-4.444479e-01 73:2.174921e-01 74:4.866937e-01 75:-5.158172e-01 76:3.654106e-01 77:3.199534e-01 78:4.810037e-01 79:8.578594e-01 80:-5.586096e-01 81:4.636616e-01 82:-7.393716e-01 83:-7.876711e-01 84:2.656032e-01 85:-2.231267e-01 86:-3.003649e-01 87:7.381392e-01 88:-2.460496e-02 89:-5.741838e-01 90:7.368089e-01 91:-3.715646e-01 92:7.460503e-01 93:5.150141e-01 94:-4.247955e-01 95:2.010768e-01 96:7.083062e-01 97:3.356258e-01 98:-9.471515e-02 99:-7.142074e-01 100:8.027101e-01 101:-6.357513e-01 102:-7.138556e-01 103:-5.943408e-01 104:-3.977998e-01 105:7.940153e-01 106:7.782061e-01 107:3.649084e-01 108:4.973654e-01 109:-2.442545e-01 110:-2.788380e-01 111:5.368625e-01 112:2.361893e-01 113:-8.284448e-01 114:6.893555e-01 115:-8.417153e-02 116:7.948813e-02 117:9.549303e-02 118:5.949235e-01 119:2.431319e-01 120:-5.065601e-01 121:4.207475e-01 122:-5.088386e-01 123:3.614389e-01 124:2.516447e-01 125:7.556101e-01 126:-7.131883e-01 127:-5.845660e-01 128:-1.230592e-01 129:4.497292e-01 130:-4.594004e-01 131:4.633492e-01 132:-4.421049e-01 133:1.964096e-01 134:-6.151372e-01 135:2.529078e-01 136:7.361299e-01 137:7.379405e-01 138:-6.241858e-01 139:1.552071e-01 140:-6.176781e-01 141:-3.809200e-01 142:-3.931704e-01 143:-5.509017e-01 144:-3.517240e-01 145:7.148677e-01 146:1.954479e-01 147:-7.471569e-01 148:-1.539585e-02 149:-4.448173e-01 150:-5.031055e-01 151:-1.498058e-01 152:1.719787e-02 153:1.074768e-01 154:-4.776725e-01 155:-7.841458e-02 156:-3.040593e-01 157:-7.592084e-01 158:6.938535e-01 159:3.017887e-01 160:-8.477765e-01 161:-6.497896e-01 162:4.864371e-01 163:-5.711163e-01 164:-4.023881e-01 165:-4.469684e-01 166:-6.248991e-01 167:4.436801e-01 168:-6.295434e-01 169:-6.815345e-02 170:-2.470486e-01 171:-2.712674e-01 172:-3.992821e-01 173:5.476802e-01 174:-1.623655e-01 175:1.224176e-01 176:1.942052e-01 177:-6.337867e-01 178:3.820105e-01 179:-7.811342e-01 180:5.669652e-01 181:1.980852e-01 182:-2.718564e-01 183:-1.326977e-02 184:-8.318870e-01 185:6.764605e-01 186:-7.978863e-01 187:-8.788032e-01 188:-4.996948e-01 189:-1.016424e-02 190:4.081895e-01 191:-6.519600e-01 192:-6.547461e-01 193:6.654982e-01 194:-3.759764e-01 195:4.720710e-01 196:-1.177202e-01 197:3.964903e-01 198:6.099760e-01 199:5.426221e-01 
0.04704419144767713 0:4.040849e-01 1:-6.350157e-02 2:4.693769e-01 3:1.632692e-03 4:8.642073e-01 5:-6.050862e-01 6:-3.333257e-01 7:-5.101842e-01 8:-8.290989e-01 9:-1.644387e-01 10:-3.914639e-02 11:-3.642990e-01 12:-6.182267e-01 13:6.863335e-01 14:6.386878e-01 15:2.407884e-01 16:4.747247e-01 17:4.217825e-01 18:5.443972e-01 19:-7.540208e-01 20:4.716909e-01 21:-6.581990e-01 22:3.734596e-01 23:7.647155e-01 24:-3.509368e-01 25:5.975892e-01 26:-4.413066e-01 27:-2.578859e-01 28:5.949337e-01 29:5.203679e-01 30:-5.530160e-01 31:5.832387e-01 32:3.109532e-01 33:-6.905864e-01 34:3.790416e-02 35:7.827136e-01 36:7.874896e-01 37:-1.099148e-01 38:2.021830e-01 39:-7.498741e-01 40:6.865311e-01 41:3.319775e-01 42:4.625025e-01 43:-1.018614e-01 44:1.485637e-01 45:-3.705966e-02 46:3.573131e-01 47:-4.249211e-01 48:3.755722e-01 49:-3.632539e-01 50:-5.052866e-02 51:3.668861e-02 52:-2.108197e-01 53:-4.964768e-01 54:5.842550e-01 55:-8.078281e-01 56:-6.265354e-01 57:1.276435e-01 58:-2.592804e-01 59:-3.060538e-01 60:-7.187887e-01 61:6.132219e-01 62:-5.646487e-01 63:6.428230e-01 64:3.484462e-01 65:7.706034e-02 66:5.896657e-01 67:7.259024e-01 68:3.735530e-01 69:6.401625e-01 70:-6.244370e-01 71:9.710393e-01 72:2.642891e-01 73:5.241156e-01 74:4.968105e-01 75:-5.890918e-01 76:5.831523e-01 77:-7.049937e-02 78:6.042539e-01 79:7.500259e-01 80:-6.240794e-01 81:4.942178e-01 82:-6.525015e-01 83:-5.823321e-01 84:4.054945e-01 85:4.337860e-01 86:1.095344e-01 87:7.198898e-01 88:1.190667e-01 89:-7.520251e-01 90:8.061864e-01 91:-6.055095e-01 92:8.123492e-01 93:4.492993e-01 94:-8.868916e-02 95:5.807791e-01 96:7.273618e-01 97:5.580760e-01 98:2.184745e-01 99:-7.184825e-01 100:6.413626e-01 101:-7.381085e-01 102:-8.152263e-01 103:-5.280135e-01 104:-7.051336e-01 105:8.385403e-01 106:6.263270e-01 107:2.702602e-01 108:7.468201e-01 109:-2.004907e-01 110:-3.745051e-01 111:2.190097e-01 112:2.298490e-01 113:-7.017726e-01 114:5.946711e-01 115:3.353275e-01 116:-5.920743e-02 117:-1.491706e-01 118:6.126792e-01 119:-1.009923e-01 120:-4.579418e-01 121:4.128250e-01 122:-4.485085e-01 123:4.806457e-01 124:1.721575e-01 125:3.227280e-01 126:-6.354110e-01 127:-6.950626e-01 128:-3.412658e-01 129:6.784972e-01 130:-5.793642e-01 131:-5.439862e-01 132:-5.367459e-01 133:-2.614736e-01 134:-3.452356e-01 135:1.329342e-01 136:7.395026e-01 137:7.689580e-01 138:-3.066466e-01 139:2.539699e-01 140:-7.237228e-01 141:-7.422847e-02 142:-1.358280e-01 143:-3.909998e-01 144:-4.238740e-01 145:4.597629e-01 146:-9.020859e-02 147:-6.168286e-01 148:-2.058067e-01 149:-5.768824e-01 150:-5.690758e-01 151:-7.747213e-01 152:-2.186815e-01 153:-5.326898e-01 154:-4.597059e-01 155:6.406999e-01 156:8.654277e-02 157:-6.877307e-01 158:7.505314e-01 159:-6.877182e-01 160:-5.437002e-01 161:-6.916153e-01 162:-6.418906e-02 163:-6.980121e-01 164:-5.813957e-01 165:-3.390644e-01 166:-1.456969e-01 167:3.731079e-01 168:-6.599778e-01 169:-5.075047e-01 170:-2.321655e-01 171:2.111387e-01 172:-4.678185e-01 173:5.658076e-01 174:-3.187036e-01 175:2.658102e-01 176:2.642071e-01 177:-6.368703e-01 178:6.520330e-01 179:-6.022404e-01 180:4.920259e-01 181:2.164772e-01 182:-2.527133e-01 183:6.827128e-02 184:-4.272181e-01 185:6.739864e-01 186:-6.939967e-01 187:-7.410518e-01 188:-5.539036e-01 189:6.015890e-01 190:-2.225172e-01 191:-4.367687e-01 192:-7.303930e-01 193:7.261600e-01 194:-4.948485e-01 195:4.038879e-01 196:3.098947e-01 197:7.703310e-02 198:4.923936e-01 199:6.511551e-01 
0.07937768891039587 0:5.930413e-01 1:-4.881964e-01 2:4.516964e-01 3:3.772908e-01 4:4.085731e-01 5:-1.710782e-01 6:-2.547314e-01 7:-5.918599e-01 8:-4.479518e-01 9:2.705544e-01 10:2.031918e-02 11:1.696253e-01 12:-6.639783e-01 13:-3.767078e-02 14:2.023133e-01 15:-4.320734e-01 16:4.622298e-01 17:7.289550e-01 18:8.184203e-01 19:-5.930617e-01 20:2.385338e-01 21:-7.226614e-01 22:3.278465e-01 23:3.279207e-01 24:-4.880537e-01 25:4.704276e-02 26:2.332304e-02 27:6.185718e-01 28:3.824213e-01 29:9.507466e-02 30:-5.695176e-01 31:5.610234e-01 32:7.441834e-01 33:-3.907138e-01 34:-1.659621e-01 35:8.542825e-01 36:8.726480e-01 37:-4.094427e-01 38:4.363119e-01 39:-6.349963e-01 40:4.198293e-01 41:-1.249528e-01 42:6.719928e-01 43:2.583071e-01 44:-7.996069e-02 45:-1.381052e-01 46:3.017635e-01 47:-5.023511e-01 48:5.776036e-01 49:-7.871672e-01 50:-1.654288e-01 51:-4.603019e-01 52:8.562461e-02 53:-7.878474e-01 54:6.044855e-01 55:-4.603051e-01 56:1.978765e-01 57:5.353259e-01 58:5.576267e-01 59:-9.878444e-02 60:-9.067549e-01 61:4.998809e-01 62:-5.153403e-01 63:7.388940e-01 64:4.003185e-01 65:8.514264e-02 66:1.839150e-01 67:6.744835e-01 68:6.891335e-01 69:9.491376e-01 70:-5.163268e-01 71:6.030756e-01 72:2.905044e-01 73:3.468729e-01 74:5.098604e-01 75:-6.539243e-01 76:8.104293e-01 77:-2.507564e-01 78:4.529283e-01 79:7.347044e-01 80:-5.993121e-01 81:5.223984e-01 82:-4.367939e-01 83:-7.268585e-01 84:3.500436e-01 85:6.152523e-01 86:-1.092806e-01 87:7.775260e-01 88:-2.361617e-01 89:-5.095983e-01 90:4.556717e-01 91:-4.416745e-01 92:7.405935e-01 93:6.610436e-01 94:-2.873305e-02 95:4.423844e-01 96:7.279020e-01 97:1.976655e-01 98:4.114479e-01 99:-7.403692e-01 100:6.792166e-01 101:-6.220243e-01 102:-8.200640e-01 103:-5.881774e-01 104:-2.137767e-01 105:6.340918e-01 106:8.075966e-01 107:2.916900e-02 108:8.227574e-01 109:-3.761001e-01 110:-3.519371e-01 111:5.088136e-01 112:-5.046849e-01 113:-7.356912e-01 114:6.155313e-01 115:-3.037659e-01 116:-2.093182e-02 117:5.275188e-01 118:5.285668e-01 119:-2.038073e-01 120:-5.007947e-01 121:1.539081e-01 122:-6.344652e-01 123:5.025315e-01 124:3.823582e-01 125:5.490718e-01 126:-6.964508e-01 127:-7.043370e-01 128:-1.567685e-01 129:4.710242e-01 130:-9.815280e-01 131:-1.049122e-01 132:-5.804641e-01 133:-1.604050e-01 134:-4.383160e-01 135:-1.453869e-01 136:7.311199e-01 137:7.786123e-01 138:-1.277110e-01 139:-9.286054e-02 140:-4.327429e-01 141:-1.121326e-01 142:4.597332e-02 143:-3.020566e-01 144:-1.236407e-01 145:5.270487e-01 146:2.929221e-01 147:-6.805333e-01 148:-2.551866e-02 149:-5.328275e-01 150:-6.212067e-01 151:-1.883964e-01 152:3.226962e-01 153:-5.989772e-01 154:9.008740e-02 155:-1.242944e-01 156:-2.528983e-01 157:-8.564194e-01 158:6.547600e-01 159:-3.184877e-01 160:-6.856720e-01 161:-7.205241e-01 162:2.835462e-01 163:-7.350002e-01 164:-5.032300e-01 165:-3.343842e-01 166:-7.964070e-02 167:4.877906e-01 168:-5.848875e-01 169:-4.848376e-01 170:-2.799061e-01 171:4.340142e-01 172:-3.358963e-01 173:4.838587e-01 174:-5.661037e-01 175:3.389635e-01 176:3.006644e-01 177:-7.053671e-01 178:7.521083e-01 179:-4.153464e-01 180:4.465483e-01 181:4.982902e-01 182:-4.199747e-01 183:2.468806e-01 184:-5.328467e-01 185:4.473158e-01 186:-6.050377e-01 187:-7.935911e-01 188:-7.248977e-01 189:2.522420e-01 190:1.681364e-01 191:-8.679935e-01 192:-7.319679e-01 193:6.705859e-01 194:-4.748485e-01 195:4.363652e-01 196:4.196390e-01 197:1.445277e-01 198:2.524633e-01 199:7.246846e-01 
-0.06350631383772587 0:6.754810e-01 1:9.926292e-02 2:2.551552e-01 3:3.112192e-01 4:7.298330e-01 5:-6.240913e-01 6:-1.970757e-01 7:-4.221418e-01 8:-6.261892e-01 9:9.245201e-02 10:1.335864e-01 11:-9.083053e-02 12:-6.049136e-01 13:8.732352e-02 14:4.960473e-01 15:-8.507099e-01 16:6.296100e-01 17:5.101057e-01 18:6.585184e-01 19:-6.159382e-01 20:4.005782e-01 21:-7.740519e-01 22:1.950656e-01 23:-1.270514e-01 24:-7.169351e-01 25:5.532425e-01 26:3.309162e-01 27:7.162132e-01 28:5.687914e-01 29:2.305677e-01 30:-6.694022e-01 31:5.434053e-01 32:7.230712e-01 33:-4.227524e-01 34:-2.272141e-01 35:7.287096e-01 36:6.684744e-01 37:-1.454739e-01 38:6.643977e-01 39:-6.418409e-01 40:6.333369e-01 41:2.787253e-01 42:7.373135e-01 43:4.882184e-01 44:-6.035254e-01 45:2.442937e-01 46:4.395348e-01 47:-4.096891e-01 48:4.144458e-01 49:-3.421793e-01 50:2.246353e-01 51:-3.606764e-01 52:3.122538e-01 53:-5.978228e-01 54:3.651314e-01 55:-5.539945e-01 56:1.487912e-01 57:2.929571e-01 58:6.838940e-01 59:-4.745153e-01 60:-8.266836e-01 61:2.812879e-01 62:-3.906623e-01 63:8.259177e-01 64:6.535239e-01 65:2.036793e-02 66:5.124867e-01 67:6.703096e-01 68:5.002677e-01 69:7.221274e-01 70:-6.992869e-01 71:5.980486e-01 72:8.102567e-01 73:2.013687e-01 74:5.643385e-01 75:-6.614884e-01 76:4.693229e-01 77:1.100515e-01 78:5.726111e-01 79:7.140384e-01 80:-4.954419e-01 81:6.693453e-01 82:-7.179888e-01 83:-8.143713e-01 84:5.176661e-01 85:2.886597e-01 86:-6.646026e-01 87:7.810403e-01 88:-2.918056e-01 89:-7.829791e-01 90:6.174383e-01 91:-8.245044e-01 92:7.874871e-01 93:4.804851e-01 94:-4.817851e-01 95:2.976961e-01 96:6.534909e-01 97:6.685648e-01 98:-9.286360e-03 99:-7.493335e-01 100:8.961616e-01 101:-6.082958e-01 102:-6.548048e-01 103:-8.713580e-01 104:-4.627873e-01 105:8.085608e-01 106:7.799659e-01 107:-7.639866e-02 108:7.712849e-01 109:-7.018007e-02 110:-6.691126e-01 111:1.462243e-01 112:-6.430899e-02 113:-7.948647e-01 114:6.491607e-01 115:-2.518986e-01 116:3.408140e-01 117:4.926018e-01 118:8.107267e-01 119:3.897091e-01 120:-5.812355e-01 121:4.023213e-01 122:-4.059056e-01 123:3.375951e-01 124:2.454242e-01 125:6.964009e-01 126:-6.679443e-01 127:-7.302781e-01 128:-6.193853e-01 129:4.629523e-01 130:-4.886129e-01 131:-6.444064e-01 132:-5.576817e-01 133:-7.003053e-02 134:-4.194863e-01 135:3.674036e-01 136:6.160244e-01 137:6.719544e-01 138:-3.875692e-01 139:2.041939e-01 140:-6.828205e-01 141:1.457514e-02 142:-6.822000e-02 143:-6.140805e-01 144:-6.932858e-01 145:6.860293e-01 146:1.541118e-01 147:-5.689156e-01 148:-1.476155e-01 149:-5.166633e-01 150:-7.122846e-01 151:-1.479398e-01 152:2.999039e-01 153:-7.693688e-01 154:-4.189051e-01 155:-3.282798e-01 156:-3.910190e-01 157:-7.970407e-01 158:6.535155e-01 159:2.821395e-01 160:-6.198015e-01 161:-3.769809e-01 162:-3.205360e-01 163:-8.226480e-01 164:-1.917129e-01 165:-2.537433e-02 166:-3.156401e-01 167:4.897167e-01 168:-6.160455e-01 169:-4.994498e-01 170:-2.567000e-01 171:1.423412e-01 172:-4.146406e-01 173:4.424209e-01 174:-6.442880e-01 175:2.991210e-01 176:1.315870e-01 177:-7.458629e-01 178:7.201482e-01 179:-6.213350e-01 180:6.000729e-01 181:5.418311e-01 182:-4.995894e-01 183:4.711717e-01 184:-7.636876e-01 185:6.410261e-01 186:-5.100477e-01 187:-8.073132e-01 188:-7.586600e-01 189:-1.175892e-01 190:5.920733e-01 191:-6.205406e-01 192:-7.018166e-01 193:6.344897e-01 194:-2.436808e-01 195:8.914657e-01 196:4.786300e-02 197:4.447018e-01 198:3.937715e-01 199:6.383729e-01 
0.08432382417885487 0:6.508638e-01 1:-1.032138e-01 2:-1.328393e-01 3:4.103823e-01 4:5.939537e-01 5:-3.525063e-01 6:-4.119541e-01 7:-5.306307e-01 8:-6.352716e-01 9:6.860384e-02 10:-9.562106e-02 11:-2.778602e-01 12:-7.041791e-01 13:4.404872e-01 14:2.213335e-01 15:-3.400851e-01 16:2.890285e-01 17:4.829198e-01 18:6.208869e-01 19:-5.503934e-01 20:5.581553e-01 21:-2.696055e-01 22:5.447326e-01 23:2.735051e-01 24:-6.189788e-01 25:3.838060e-01 26:3.872169e-01 27:3.802394e-01 28:2.143947e-01 29:4.236107e-01 30:-7.170169e-01 31:7.230807e-01 32:6.003822e-01 33:-3.593531e-01 34:-2.995219e-01 35:5.206771e-01 36:7.611559e-01 37:-6.599648e-01 38:3.098948e-01 39:-6.826552e-01 40:5.565167e-01 41:4.595497e-02 42:6.023812e-01 43:5.371162e-01 44:-3.601642e-01 45:-2.424609e-01 46:4.208685e-01 47:-3.854708e-01 48:4.776927e-01 49:-4.002108e-01 50:-1.962324e-01 51:-4.042487e-01 52:-7.939024e-02 53:-7.311000e-01 54:5.848340e-01 55:-1.906605e-01 56:7.595263e-01 57:4.467287e-01 58:3.359490e-01 59:-4.121610e-01 60:-7.821675e-01 61:2.284688e-01 62:-4.351065e-01 63:6.018799e-01 64:5.600466e-01 65:4.948607e-01 66:7.175233e-01 67:6.917859e-01 68:5.756304e-01 69:8.610661e-01 70:-5.229065e-01 71:4.894599e-01 72:5.580262e-02 73:4.820367e-01 74:7.524279e-01 75:-5.623252e-01 76:6.551676e-01 77:-2.387011e-01 78:6.668242e-01 79:8.436586e-01 80:-4.606058e-01 81:3.315305e-01 82:-4.459872e-01 83:-7.832301e-01 84:2.294583e-01 85:-1.676402e-01 86:-3.870175e-01 87:6.079288e-01 88:-4.723213e-01 89:-7.648251e-01 90:7.882972e-01 91:-8.671750e-01 92:6.939217e-01 93:4.509868e-01 94:-4.004370e-01 95:4.543811e-01 96:6.694696e-01 97:4.840583e-01 98:4.628474e-01 99:-5.896916e-01 100:5.814887e-01 101:-6.334146e-01 102:-5.994305e-01 103:-7.824675e-01 104:-6.369839e-01 105:7.671593e-01 106:8.512474e-01 107:3.257764e-01 108:4.308971e-01 109:1.161993e-03 110:-4.643177e-01 111:3.625568e-01 112:-1.596407e-01 113:-7.289808e-01 114:6.901536e-01 115:-9.420011e-03 116:-1.225711e-01 117:3.429528e-01 118:6.940384e-01 119:-3.813505e-01 120:-4.743553e-01 121:5.837843e-01 122:-5.740429e-01 123:5.930964e-01 124:1.407675e-01 125:6.374217e-01 126:-8.425819e-01 127:-5.556370e-01 128:-4.096202e-01 129:2.659968e-01 130:-5.155317e-01 131:-2.951359e-01 132:-5.917727e-01 133:-4.119375e-01 134:-4.210866e-01 135:4.021907e-01 136:8.302634e-01 137:8.143062e-01 138:-6.214462e-01 139:-4.252480e-02 140:-6.411211e-01 141:-2.032930e-01 142:-2.086924e-01 143:-5.973977e-01 144:-2.943115e-01 145:7.699396e-01 146:1.365476e-01 147:-9.077545e-01 148:-4.308122e-01 149:-3.994983e-01 150:-3.464737e-01 151:-3.886824e-01 152:-1.351637e-02 153:-2.409788e-01 154:-3.791726e-01 155:1.387030e-01 156:-3.980706e-01 157:-7.870660e-01 158:6.495825e-01 159:-5.057555e-01 160:-5.980055e-01 161:-6.191257e-01 162:2.257465e-01 163:-7.440819e-01 164:-5.454120e-01 165:-3.232174e-01 166:3.627835e-01 167:7.651041e-02 168:-4.728861e-01 169:-5.267031e-01 170:-3.656970e-01 171:3.702852e-01 172:-5.852517e-02 173:7.553192e-01 174:-3.596277e-02 175:-6.300136e-02 176:5.186526e-01 177:-7.597140e-01 178:8.898329e-01 179:-4.898675e-01 180:5.469581e-01 181:9.464660e-02 182:-6.678585e-02 183:2.547404e-01 184:-6.514865e-01 185:6.146628e-01 186:-6.921561e-01 187:-7.689089e-01 188:-6.766522e-01 189:-1.847391e-02 190:-2.788867e-01 191:-5.785782e-01 192:-7.448795e-01 193:8.378969e-01 194:-3.678263e-01 195:7.569260e-01 196:2.093718e-01 197:-3.133439e-01 198:3.413917e-01 199:7.056562e-01 
0.08904568764224996 0:5.855947e-01 1:-1.868498e-01 2:4.808837e-02 3:4.240665e-01 4:8.036427e-01 5:-6.728199e-01 6:3.349747e-01 7:-5.310564e-01 8:-5.945926e-01 9:1.456124e-01 10:-5.718677e-01 11:-1.248039e-01 12:-5.832191e-01 13:3.311670e-01 14:6.874404e-01 15:-3.439587e-01 16:7.034895e-01 17:2.871608e-01 18:7.087572e-01 19:-4.815028e-01 20:6.642687e-01 21:-6.991378e-01 22:2.595334e-01 23:3.902495e-01 24:-6.613009e-01 25:4.343387e-01 26:1.862972e-01 27:4.339379e-01 28:3.551856e-01 29:3.306914e-01 30:-7.457482e-01 31:6.263259e-01 32:7.970284e-01 33:-5.234154e-01 34:-6.493330e-01 35:7.927199e-01 36:6.646310e-01 37:-3.028383e-01 38:3.074932e-01 39:-6.570398e-01 40:5.628775e-01 41:8.039559e-01 42:6.128186e-01 43:3.634520e-01 44:-3.782748e-01 45:-4.387106e-01 46:6.157725e-01 47:-6.052750e-01 48:5.443190e-01 49:-3.850149e-01 50:2.481339e-01 51:-3.461888e-01 52:4.202520e-01 53:-6.537685e-01 54:4.050603e-01 55:-7.560787e-01 56:-1.702292e-01 57:5.312882e-01 58:3.954270e-01 59:-2.823973e-02 60:-7.662642e-01 61:4.497784e-01 62:-5.571404e-01 63:6.056634e-01 64:7.059947e-01 65:-3.654943e-02 66:8.324140e-01 67:6.488698e-01 68:5.565312e-01 69:7.199975e-01 70:-3.672844e-01 71:1.360084e-01 72:7.958769e-02 73:-2.217784e-02 74:6.656635e-01 75:-6.465513e-01 76:6.201289e-01 77:-3.103331e-01 78:5.237002e-01 79:7.043479e-01 80:-5.333680e-01 81:6.719247e-01 82:-5.230835e-01 83:-6.479771e-01 84:2.621052e-01 85:5.813588e-01 86:-5.990690e-02 87:7.374525e-01 88:-4.473250e-01 89:-6.959730e-01 90:5.619740e-01 91:-2.784054e-01 92:6.393082e-01 93:5.593615e-01 94:-4.849928e-01 95:1.622402e-01 96:7.934375e-01 97:4.172687e-01 98:6.226334e-01 99:-7.504617e-01 100:7.070446e-01 101:-6.823510e-01 102:-6.466112e-01 103:-5.704440e-01 104:-4.609787e-01 105:8.993768e-01 106:6.299986e-01 107:4.142881e-01 108:6.361679e-01 109:-2.361076e-01 110:-2.603108e-01 111:6.874293e-01 112:-2.764821e-01 113:-6.919988e-01 114:6.531023e-01 115:2.720374e-01 116:9.677420e-03 117:-1.477963e-01 118:6.610053e-01 119:6.758564e-02 120:-7.054306e-01 121:4.685305e-01 122:-3.665296e-01 123:6.237454e-01 124:4.803275e-01 125:7.084709e-01 126:-6.376013e-01 127:-4.789169e-01 128:-5.083888e-01 129:5.172969e-01 130:-6.227650e-01 131:1.140033e-01 132:-5.869261e-01 133:-3.952478e-01 134:-4.405828e-01 135:-1.450381e-01 136:7.067455e-01 137:1.409484e-01 138:-2.834682e-01 139:-5.557407e-01 140:-5.095687e-01 141:-1.753327e-01 142:-2.870118e-01 143:-6.356268e-01 144:-1.364719e-01 145:4.581622e-01 146:-2.877500e-02 147:-5.449394e-01 148:-4.096677e-01 149:-5.594496e-01 150:-5.799413e-01 151:-2.083561e-01 152:2.907019e-01 153:-4.453929e-01 154:-4.499660e-01 155:2.016367e-01 156:-1.632615e-02 157:-9.771626e-01 158:7.855665e-01 159:1.131416e-01 160:-6.886018e-01 161:-6.870465e-01 162:3.217646e-01 163:-7.606703e-01 164:-5.079200e-01 165:-6.479973e-01 166:2.072631e-01 167:4.092848e-01 168:-7.460404e-01 169:-5.457181e-01 170:-3.401783e-01 171:1.133626e-01 172:-4.394640e-01 173:5.732660e-01 174:1.640310e-01 175:2.748645e-01 176:6.266523e-01 177:-5.747394e-01 178:5.925651e-01 179:-5.715807e-01 180:8.221856e-01 181:8.536621e-01 182:-4.267846e-01 183:8.952045e-02 184:-4.694568e-01 185:6.254528e-01 186:-5.038158e-01 187:-7.102003e-01 188:-7.334749e-01 189:2.943898e-01 190:1.692984e-01 191:-7.292649e-01 192:-6.727814e-01 193:8.200412e-01 194:-3.986442e-01 195:3.913261e-01 196:2.185182e-01 197:1.648838e-01 198:4.134288e-01 199:4.445801e-01 
-0.02817717089436067 0:6.419796e-01 1:-3.663180e-01 2:2.990091e-01 3:3.428388e-01 4:1.000000e+00 5:-1.395286e-01 6:-4.202796e-01 7:-4.605394e-01 8:-5.211607e-01 9:1.515710e-01 10:-4.174135e-02 11:-3.015084e-01 12:-6.443453e-01 13:4.107504e-01 14:3.392450e-01 15:-4.974270e-01 16:4.949534e-01 17:5.158879e-01 18:8.284078e-01 19:-6.304308e-01 20:7.579458e-01 21:-6.388134e-01 22:5.205205e-01 23:3.092225e-01 24:-6.055071e-01 25:6.614615e-01 26:-2.143707e-01 27:5.227705e-01 28:5.775661e-01 29:3.542413e-01 30:-8.108725e-01 31:6.189203e-01 32:7.193881e-01 33:-7.131968e-01 34:5.552431e-01 35:8.739162e-01 36:7.639242e-01 37:-4.568630e-01 38:4.640337e-01 39:-6.665728e-01 40:5.338458e-01 41:5.087430e-01 42:6.210389e-01 43:3.053263e-01 44:-3.496656e-01 45:2.258247e-01 46:5.905301e-01 47:-5.244486e-01 48:5.296532e-01 49:-4.382803e-01 50:-4.364824e-01 51:-5.845867e-02 52:3.202415e-01 53:-5.738795e-01 54:6.208648e-01 55:-6.131371e-01 56:-1.003854e-01 57:-9.934094e-02 58:5.991223e-01 59:-3.466142e-01 60:-7.679201e-01 61:6.041742e-01 62:-4.836775e-01 63:6.908079e-01 64:4.152387e-01 65:1.784247e-01 66:6.389305e-01 67:7.943349e-01 68:3.835204e-01 69:6.946219e-01 70:-7.155388e-01 71:6.736476e-01 72:1.928047e-01 73:6.758522e-01 74:6.085531e-01 75:-8.562453e-01 76:5.514238e-01 77:3.715671e-01 78:6.231718e-01 79:5.289009e-01 80:-6.816795e-01 81:4.710851e-01 82:-4.911298e-01 83:-5.896383e-01 84:1.054812e-01 85:8.899637e-02 86:-8.169142e-01 87:7.035596e-01 88:-5.598369e-01 89:-3.940216e-01 90:5.918660e-01 91:-2.949956e-01 92:5.159903e-01 93:4.402978e-01 94:5.575723e-02 95:3.776714e-01 96:6.603964e-01 97:4.804955e-01 98:4.341200e-01 99:-5.334417e-01 100:7.910831e-01 101:-6.597278e-01 102:-6.862727e-01 103:-5.721231e-01 104:-4.696371e-01 105:8.350067e-01 106:7.817494e-01 107:5.928824e-01 108:6.495433e-01 109:-3.869931e-01 110:5.189909e-01 111:6.730550e-01 112:-1.000000e+00 113:-6.050529e-01 114:4.825020e-01 115:9.935818e-02 116:2.836360e-01 117:-2.852006e-01 118:5.645481e-01 119:3.677767e-01 120:-6.515026e-01 121:-4.610475e-02 122:-6.265816e-01 123:5.025747e-01 124:4.882450e-01 125:5.896879e-01 126:-7.344278e-01 127:-7.185317e-01 128:-5.250668e-01 129:4.818990e-02 130:-5.750928e-01 131:-1.776225e-02 132:-2.960171e-01 133:-4.567403e-01 134:-5.435000e-01 135:-2.004574e-01 136:7.194887e-01 137:6.810495e-01 138:-2.619397e-01 139:5.040770e-01 140:-5.550027e-01 141:-3.997786e-01 142:-3.198899e-01 143:-1.852509e-01 144:1.433115e-02 145:5.403096e-01 146:-5.466280e-01 147:-5.836323e-01 148:2.456438e-01 149:-5.325982e-01 150:-8.068407e-01 151:1.227232e-01 152:3.075056e-01 153:-2.797152e-01 154:-8.217938e-02 155:5.452426e-01 156:-4.966575e-01 157:-7.786795e-01 158:6.104381e-01 159:-2.421385e-01 160:-6.320916e-01 161:-7.007642e-01 162:2.210132e-01 163:-5.116823e-01 164:-5.200678e-01 165:-2.542169e-01 166:-2.527164e-01 167:3.959883e-01 168:-6.585063e-01 169:-6.385217e-01 170:-2.198333e-01 171:3.658898e-01 172:-5.622505e-01 173:6.193461e-01 174:-9.945902e-02 175:-2.233665e-02 176:6.139001e-01 177:-7.600277e-01 178:6.060440e-01 179:-3.211954e-01 180:4.117924e-01 181:1.800740e-01 182:-2.699924e-01 183:4.981902e-01 184:-7.345253e-01 185:5.058853e-01 186:-6.852053e-01 187:-6.669839e-01 188:-7.759320e-01 189:4.573762e-01 190:2.978483e-01 191:-7.557656e-01 192:-6.174144e-01 193:8.806350e-01 194:-2.004794e-01 195:6.385746e-01 196:-3.031153e-01 197:7.512155e-01 198:9.321763e-01 199:7.652256e-01 
-0.019964754390868755 0:7.192982e-01 1:-5.922274e-02 2:3.632606e-01 3:3.669137e-01 4:3.281675e-01 5:-5.542910e-01 6:-8.167465e-01 7:-6.343676e-01 8:-6.373092e-01 9:-2.377914e-01 10:-3.001114e-01 11:-3.168596e-01 12:-5.590622e-01 13:2.735992e-01 14:5.407623e-01 15:-4.099363e-01 16:4.610636e-01 17:2.948407e-01 18:8.445541e-01 19:-6.231161e-01 20:6.052384e-01 21:-8.795141e-01 22:1.676034e-01 23:-1.580780e-01 24:-6.899753e-01 25:2.464184e-01 26:3.319299e-01 27:-1.834609e-01 28:3.937638e-01 29:2.482894e-01 30:-5.274799e-01 31:6.192631e-01 32:5.730469e-01 33:-6.564143e-01 34:2.909491e-01 35:7.531470e-01 36:8.453093e-01 37:-4.151351e-01 38:6.869723e-01 39:-6.897497e-01 40:6.438309e-01 41:5.212883e-01 42:5.146563e-01 43:2.251558e-01 44:-1.389065e-01 45:-3.487732e-01 46:6.021066e-01 47:-2.805135e-01 48:8.092272e-01 49:-4.201362e-01 50:-4.522246e-01 51:-3.622298e-02 52:8.074832e-02 53:-6.450457e-01 54:1.000000e+00 55:-4.404897e-01 56:-4.293075e-01 57:4.914120e-01 58:1.792539e-01 59:-2.696419e-01 60:-7.496110e-01 61:8.414114e-01 62:-4.329481e-01 63:8.477411e-01 64:4.684734e-01 65:4.489136e-01 66:4.203791e-01 67:6.938422e-01 68:5.889762e-01 69:6.669278e-01 70:-6.646625e-01 71:5.198510e-01 72:-4.407396e-01 73:2.016439e-01 74:7.959588e-01 75:-6.878135e-01 76:6.268381e-01 77:1.442053e-01 78:6.275320e-01 79:7.076627e-01 80:-4.468606e-01 81:3.073505e-01 82:-5.939819e-01 83:-5.906291e-01 84:3.553887e-01 85:1.041314e-01 86:-4.394777e-01 87:6.598418e-01 88:-2.914798e-01 89:-5.995105e-01 90:6.189090e-01 91:-4.637882e-01 92:6.130680e-01 93:3.796964e-01 94:-5.410376e-01 95:3.356482e-01 96:8.123455e-01 97:4.533384e-01 98:2.492800e-01 99:-7.382219e-01 100:9.090249e-01 101:-5.938151e-01 102:-8.091979e-01 103:-7.126655e-01 104:-5.761365e-01 105:5.458153e-01 106:6.118505e-01 107:5.405660e-01 108:8.342938e-01 109:-1.410909e-01 110:-4.114509e-02 111:2.493549e-01 112:-2.612475e-01 113:-5.464305e-01 114:7.788800e-01 115:1.575513e-02 116:1.335077e-02 117:1.427442e-01 118:8.575195e-01 119:6.239096e-02 120:-5.763579e-01 121:1.290829e-01 122:-3.515327e-01 123:4.962924e-01 124:6.513366e-01 125:6.587322e-01 126:-6.353051e-01 127:-7.203325e-01 128:-2.483710e-01 129:3.352934e-01 130:-3.484411e-01 131:3.002564e-01 132:-3.986374e-01 133:-2.892488e-01 134:-6.990162e-01 135:1.275405e-01 136:8.276017e-01 137:4.292142e-01 138:-8.677496e-01 139:-2.032996e-01 140:-5.114582e-01 141:-5.892546e-01 142:-5.095625e-01 143:-4.404145e-01 144:-2.208897e-01 145:7.375956e-01 146:2.208706e-01 147:-6.286326e-01 148:2.034318e-02 149:-4.075194e-01 150:-6.324940e-01 151:-5.271587e-01 152:7.685299e-02 153:-7.954173e-01 154:-1.724928e-01 155:6.762312e-01 156:-4.859906e-01 157:-6.180634e-01 158:6.685250e-01 159:-1.330439e-01 160:-6.840298e-01 161:-4.079593e-01 162:-1.175423e-01 163:-7.088603e-01 164:-1.688138e-01 165:-2.123066e-01 166:4.733752e-02 167:4.567342e-01 168:-3.405049e-01 169:-3.137926e-01 170:-6.589349e-01 171:2.041385e-01 172:-5.588278e-01 173:4.795945e-01 174:-3.967800e-01 175:5.101033e-01 176:1.240389e-01 177:-7.213742e-01 178:7.192623e-01 179:-5.746557e-01 180:8.490239e-01 181:2.100672e-02 182:-4.277614e-01 183:2.421519e-01 184:-6.399963e-01 185:8.960200e-01 186:-5.235278e-01 187:-8.247155e-01 188:-6.784472e-01 189:1.859173e-01 190:4.319660e-01 191:-7.619714e-01 192:-9.566996e-01 193:5.892417e-01 194:-3.414607e-01 195:5.522000e-01 196:5.325842e-01 197:4.578464e-01 198:4.392788e-02 199:6.317852e-01 
0.05031242306596084 0:5.028817e-01 1:5.354196e-02 2:1.058551e-02 3:1.611102e-01 4:2.790220e-01 5:-1.481278e-01 6:-1.383477e-01 7:-4.789353e-01 8:-2.966858e-01 9:5.849805e-01 10:-5.935930e-01 11:-1.862394e-01 12:-7.104959e-01 13:1.876833e-01 14:4.680640e-01 15:-6.473498e-01 16:5.873758e-01 17:3.536520e-01 18:5.872525e-01 19:-7.618636e-01 20:4.367427e-01 21:-8.754926e-01 22:1.012117e-01 23:-8.986043e-02 24:-7.618453e-01 25:6.049957e-01 26:8.693733e-02 27:-1.558258e-01 28:7.681734e-01 29:4.941178e-01 30:-5.531336e-01 31:7.571549e-01 32:8.778122e-01 33:-8.693636e-01 34:-3.242871e-01 35:8.764834e-01 36:8.520080e-01 37:1.767811e-02 38:3.970736e-01 39:-8.458974e-01 40:4.910764e-01 41:1.613551e-01 42:5.694555e-01 43:2.949644e-01 44:-5.127476e-01 45:-2.002384e-01 46:6.106566e-01 47:-3.481212e-01 48:3.065542e-01 49:-3.551648e-01 50:-2.032976e-01 51:-2.761279e-01 52:1.072556e-01 53:-5.868502e-01 54:2.286097e-01 55:-5.046467e-01 56:-7.643294e-02 57:5.678362e-01 58:-9.777654e-02 59:-3.021516e-01 60:-5.047612e-01 61:7.762541e-01 62:-4.833081e-01 63:6.568114e-01 64:4.484793e-01 65:6.541678e-01 66:5.332704e-01 67:7.194809e-01 68:4.509173e-01 69:5.980137e-01 70:-7.424780e-01 71:6.067306e-01 72:3.607145e-01 73:3.628483e-01 74:5.262678e-01 75:-7.388340e-01 76:6.946693e-01 77:3.666363e-01 78:5.750288e-01 79:6.425072e-01 80:-6.007797e-01 81:4.194749e-01 82:-3.707374e-01 83:-6.707908e-01 84:2.599308e-01 85:1.932633e-01 86:-4.180343e-01 87:6.026971e-01 88:-4.099134e-02 89:-6.722324e-01 90:6.348450e-01 91:-3.308293e-01 92:6.457101e-01 93:6.163772e-01 94:-1.183351e-01 95:4.062020e-01 96:7.398957e-01 97:1.425890e-01 98:4.316805e-01 99:-6.721177e-01 100:7.809417e-01 101:-6.571494e-01 102:-4.441696e-01 103:-7.043188e-01 104:-5.506563e-01 105:6.350306e-01 106:7.157839e-01 107:-7.288996e-02 108:6.306822e-01 109:-2.734971e-01 110:-1.865283e-01 111:5.536675e-01 112:1.901096e-01 113:-8.414050e-01 114:5.912100e-01 115:-1.311395e-01 116:1.525216e-01 117:2.578072e-01 118:7.726180e-01 119:5.052050e-01 120:-6.269814e-01 121:4.628806e-01 122:-2.774342e-01 123:6.871546e-01 124:4.968418e-02 125:6.554433e-01 126:-6.510589e-01 127:-8.392521e-01 128:-6.150613e-01 129:3.881014e-01 130:-5.661188e-01 131:2.987793e-01 132:-3.685633e-01 133:-8.306849e-02 134:-2.409364e-01 135:4.725912e-01 136:4.248726e-01 137:5.721728e-01 138:-1.353983e-01 139:-3.354492e-01 140:-1.390379e-01 141:-2.962635e-01 142:-1.838026e-01 143:-7.011055e-01 144:-8.156652e-02 145:8.574402e-01 146:1.292076e-01 147:-5.220113e-01 148:2.938122e-01 149:-5.453046e-01 150:-5.576442e-01 151:-1.429745e-01 152:-2.485975e-01 153:-5.762973e-01 154:-1.084672e-01 155:1.981808e-01 156:-2.070042e-01 157:-6.992116e-01 158:7.658923e-01 159:-8.349253e-02 160:-6.193168e-01 161:-7.176942e-01 162:1.051608e-01 163:-5.129673e-01 164:-2.865132e-01 165:-3.861350e-01 166:-1.710312e-01 167:4.866326e-01 168:-5.936676e-01 169:-6.052568e-01 170:-4.666543e-01 171:1.991788e-01 172:-5.028409e-01 173:4.786677e-01 174:-3.507420e-01 175:2.613265e-01 176:-1.688841e-01 177:-7.056351e-01 178:6.046495e-01 179:-7.725111e-01 180:6.089272e-01 181:-1.191151e-01 182:-6.590644e-01 183:3.730081e-01 184:-5.887541e-01 185:8.668724e-01 186:-7.219100e-01 187:-7.652190e-01 188:-7.609214e-01 189:9.859680e-02 190:2.636875e-01 191:-7.286772e-01 192:-7.751862e-01 193:7.027995e-01 194:-2.396257e-01 195:6.801132e-01 196:-3.210800e-01 197:-7.323771e-03 198:4.365674e-01 199:5.936943e-01 
0.003176995157083473 0:7.888573e-01 1:1.627100e-01 2:5.986638e-01 3:4.692341e-01 4:6.804265e-01 5:-2.809511e-01 6:-1.070429e-01 7:-4.921306e-01 8:-6.322341e-01 9:6.308002e-01 10:-1.638577e-01 11:2.457947e-02 12:-5.521288e-01 13:7.314648e-01 14:2.182030e-01 15:3.377004e-02 16:5.779539e-01 17:6.948299e-01 18:5.808308e-01 19:-6.064966e-01 20:5.955862e-01 21:-6.478672e-01 22:1.316487e-01 23:1.699379e-01 24:-5.325200e-01 25:6.992648e-01 26:1.996074e-01 27:1.148289e-01 28:6.171669e-01 29:6.952745e-01 30:-7.251148e-01 31:5.868091e-01 32:7.133486e-01 33:-7.125861e-01 34:-3.580395e-01 35:7.726737e-01 36:7.698162e-01 37:-6.615415e-02 38:7.823051e-01 39:-7.317308e-01 40:4.163799e-01 41:2.966964e-01 42:4.665600e-01 43:-1.214932e-01 44:-2.151812e-01 45:-1.597849e-01 46:5.346332e-01 47:-3.453909e-01 48:6.019409e-01 49:-3.631699e-01 50:-2.200717e-01 51:-2.492830e-01 52:9.066447e-02 53:-5.972680e-01 54:4.300946e-01 55:-4.947992e-01 56:6.060980e-02 57:4.971100e-01 58:3.414964e-01 59:-4.431385e-01 60:-8.147603e-01 61:7.047708e-01 62:-4.791467e-01 63:5.518651e-01 64:6.669007e-01 65:2.476402e-01 66:7.774372e-01 67:7.027276e-01 68:6.052332e-01 69:6.536714e-01 70:-5.144191e-01 71:1.000000e+00 72:2.212138e-01 73:8.833303e-01 74:6.488411e-01 75:-7.437250e-01 76:7.468086e-01 77:-5.470165e-01 78:3.547989e-01 79:8.817502e-01 80:-6.072992e-01 81:4.122489e-01 82:-5.080897e-01 83:-6.699068e-01 84:3.449910e-01 85:2.304839e-01 86:-6.622299e-01 87:6.977863e-01 88:-4.475368e-01 89:-4.790749e-01 90:7.887253e-01 91:-8.987380e-01 92:6.512573e-01 93:5.219033e-01 94:-2.564279e-01 95:6.330885e-01 96:6.089445e-01 97:5.903471e-01 98:4.226479e-01 99:-7.635002e-01 100:6.921391e-01 101:-5.432138e-01 102:-6.218744e-01 103:-8.425175e-01 104:-3.720079e-01 105:7.054932e-01 106:8.457096e-01 107:6.593519e-01 108:5.801812e-01 109:-4.146399e-02 110:-7.102207e-01 111:4.231333e-01 112:2.028072e-01 113:-8.496543e-01 114:8.207232e-01 115:2.796366e-01 116:3.224824e-01 117:-3.291541e-01 118:5.953247e-01 119:2.283271e-01 120:-5.879747e-01 121:4.155893e-01 122:-7.613910e-01 123:5.691588e-01 124:4.148003e-01 125:4.365786e-01 126:-8.710893e-01 127:-6.947451e-01 128:-6.932392e-01 129:4.847366e-01 130:-5.155936e-01 131:-1.050437e-01 132:-4.117578e-01 133:-2.753186e-01 134:-7.437150e-01 135:1.116151e-01 136:7.436853e-01 137:9.857823e-01 138:-6.032863e-01 139:3.254317e-02 140:-5.727773e-01 141:-7.907470e-02 142:-5.627685e-01 143:-1.903772e-01 144:3.385071e-02 145:7.490253e-01 146:2.591244e-01 147:-5.097863e-01 148:7.197593e-01 149:-5.344240e-01 150:-5.911856e-01 151:-4.292080e-01 152:2.507883e-01 153:-3.962398e-01 154:-3.588863e-01 155:3.834240e-01 156:-2.161368e-01 157:-6.868514e-01 158:7.076006e-01 159:-5.291968e-01 160:-5.623127e-01 161:-5.605741e-01 162:-1.274208e-01 163:-5.586942e-01 164:-5.573014e-01 165:-6.712518e-01 166:-4.950004e-01 167:4.611238e-01 168:-5.365104e-01 169:-8.204521e-01 170:-3.725479e-01 171:1.668516e-01 172:-4.240772e-01 173:5.768223e-01 174:-5.314794e-01 175:4.933167e-01 176:5.103870e-01 177:-6.317122e-01 178:7.312801e-01 179:-6.501157e-01 180:6.941962e-01 181:2.852723e-01 182:-2.740750e-01 183:-1.452731e-01 184:-6.971847e-01 185:6.912982e-01 186:-7.036027e-01 187:-8.225642e-01 188:-9.047999e-01 189:9.505917e-02 190:4.256341e-01 191:-7.188975e-01 192:-8.862104e-01 193:6.902896e-01 194:-4.689423e-01 195:3.986695e-01 196:-1.302323e-01 197:1.207909e-01 198:5.309356e-01 199:7.164093e-01 
-0.03667304248202641 0:5.733579e-01 1:-1.890855e-01 2:7.788699e-01 3:7.592124e-01 4:4.084546e-01 5:-4.653618e-01 6:-3.036043e-01 7:-3.386161e-01 8:-4.909715e-01 9:2.626985e-01 10:-2.459777e-01 11:-3.829370e-01 12:-8.787172e-01 13:3.334058e-01 14:5.876448e-01 15:-2.532506e-01 16:4.747066e-01 17:3.169181e-02 18:1.000000e+00 19:-6.695426e-01 20:6.494382e-01 21:-7.395751e-01 22:1.676507e-01 23:1.729970e-01 24:-5.362250e-01 25:8.046804e-01 26:1.986145e-01 27:5.666700e-02 28:4.452461e-01 29:3.216049e-01 30:-5.486434e-01 31:6.817144e-01 32:5.637718e-01 33:-7.637905e-01 34:2.068010e-01 35:7.688120e-01 36:6.869822e-01 37:-7.017495e-02 38:4.432057e-01 39:-6.436201e-01 40:7.022051e-01 41:-3.735850e-01 42:5.535770e-01 43:7.874703e-01 44:-5.048450e-01 45:-4.309261e-01 46:7.111342e-01 47:-4.567147e-01 48:3.633921e-01 49:-2.899188e-01 50:-2.201669e-01 51:-6.759649e-01 52:5.701393e-02 53:-3.222099e-01 54:6.511396e-01 55:-6.515024e-01 56:-6.149938e-02 57:2.000496e-01 58:-1.010240e-01 59:-3.742746e-01 60:-9.039303e-01 61:5.560242e-01 62:-3.116567e-01 63:6.409291e-01 64:7.925262e-01 65:-3.007252e-01 66:7.935101e-01 67:7.011878e-01 68:3.032220e-01 69:5.067456e-01 70:-6.013244e-01 71:5.143664e-01 72:7.751859e-01 73:5.749232e-01 74:8.509214e-01 75:-6.496378e-01 76:5.408013e-01 77:-1.006817e-01 78:3.930503e-01 79:7.798826e-01 80:-4.394558e-01 81:5.576021e-01 82:-8.093605e-01 83:-6.791169e-01 84:5.541728e-01 85:3.428350e-01 86:-1.933731e-01 87:8.204922e-01 88:-1.482220e-01 89:-5.219120e-01 90:4.728819e-01 91:-3.022668e-01 92:6.654842e-01 93:3.568909e-01 94:-2.407896e-01 95:3.434914e-01 96:6.513357e-01 97:6.290135e-01 98:5.623707e-01 99:-7.174188e-01 100:7.898470e-01 101:-7.230030e-01 102:-6.881620e-01 103:-6.047032e-01 104:-5.756384e-01 105:7.325402e-01 106:7.824121e-01 107:4.274080e-01 108:9.293190e-01 109:-6.011685e-01 110:-3.252345e-02 111:2.812719e-01 112:4.170979e-02 113:-7.686052e-01 114:6.258522e-01 115:1.011307e-01 116:-6.424608e-02 117:-8.410498e-02 118:5.522717e-01 119:3.713929e-01 120:-5.719614e-01 121:3.097496e-01 122:-5.550307e-01 123:6.481741e-01 124:2.187714e-01 125:5.668622e-01 126:-5.714716e-01 127:-9.577526e-01 128:-3.856874e-01 129:3.811462e-01 130:-6.655672e-01 131:-2.188006e-01 132:-4.313285e-01 133:-1.422846e-01 134:-5.354226e-01 135:6.633671e-01 136:7.115801e-01 137:7.093070e-01 138:-3.132559e-01 139:-8.601102e-02 140:-4.358234e-01 141:1.193286e-01 142:-6.200147e-01 143:-5.552501e-01 144:-1.698206e-01 145:5.332597e-01 146:1.630586e-01 147:-6.224934e-01 148:1.383419e-02 149:-5.436464e-01 150:-4.190575e-01 151:-6.884101e-02 152:-8.835360e-03 153:-3.404578e-01 154:-8.385145e-01 155:-4.507603e-02 156:-2.555766e-01 157:-8.990651e-01 158:6.453701e-01 159:-1.687679e-01 160:-8.102449e-01 161:-6.186420e-01 162:5.456997e-01 163:-5.757946e-01 164:-4.228299e-01 165:-6.112386e-01 166:-4.576905e-02 167:8.495514e-01 168:-4.006555e-01 169:-5.807991e-01 170:-4.150101e-01 171:5.065382e-02 172:-6.470003e-01 173:7.026498e-01 174:-5.330801e-01 175:1.248703e-01 176:3.953338e-01 177:-8.394093e-01 178:7.204438e-01 179:-5.447440e-01 180:9.688523e-01 181:3.288342e-05 182:-6.247153e-01 183:6.664752e-01 184:-6.934983e-01 185:5.684719e-01 186:-4.876221e-01 187:-7.679930e-01 188:-7.251710e-01 189:-2.594384e-01 190:4.253597e-01 191:-6.401070e-01 192:-7.182057e-01 193:8.588190e-01 194:-1.476220e-01 195:5.849814e-01 196:3.787800e-01 197:6.099913e-01 198:7.932527e-01 199:6.498504e-01 
0.05942426728670247 0:5.883947e-01 1:-1.626657e-02 2:1.859793e-01 3:6.597384e-01 4:5.020157e-01 5:-3.726427e-01 6:-2.924904e-01 7:-3.741386e-01 8:-6.917324e-01 9:-6.590427e-02 10:-4.367762e-01 11:-3.198089e-01 12:-5.955704e-01 13:4.744389e-01 14:8.135135e-01 15:-4.442498e-01 16:6.721893e-01 17:4.543188e-01 18:7.823713e-01 19:-7.088090e-01 20:4.984582e-01 21:-6.914383e-01 22:3.555093e-01 23:6.986961e-01 24:-9.674303e-01 25:3.856548e-01 26:2.130686e-01 27:-3.002798e-03 28:5.994100e-01 29:2.272062e-01 30:-4.798310e-01 31:7.176456e-01 32:5.324532e-01 33:-4.737308e-01 34:-3.860927e-01 35:8.072261e-01 36:7.489090e-01 37:-3.858763e-01 38:9.992366e-02 39:-5.826068e-01 40:6.824800e-01 41:3.808631e-01 42:5.237836e-01 43:-4.727218e-01 44:-2.214743e-01 45:-9.199996e-02 46:4.143459e-01 47:1.510811e-01 48:5.913247e-01 49:-2.917082e-01 50:-1.006819e-01 51:-2.649031e-01 52:-1.805320e-01 53:-5.201585e-01 54:6.293102e-01 55:-3.783477e-01 56:1.500258e-01 57:3.590391e-01 58:3.267399e-01 59:-3.165236e-01 60:-7.436590e-01 61:3.433318e-01 62:-6.026710e-01 63:7.648144e-01 64:3.828466e-01 65:6.029227e-01 66:6.282318e-01 67:6.651859e-01 68:7.364500e-01 69:7.443306e-01 70:-2.576636e-01 71:6.628242e-01 72:8.281468e-01 73:4.742087e-01 74:6.188583e-01 75:-7.549445e-01 76:4.996246e-01 77:4.797227e-01 78:3.281765e-01 79:6.978499e-01 80:-5.712618e-01 81:6.067369e-01 82:-6.133353e-01 83:-6.647143e-01 84:5.915879e-01 85:1.385855e-01 86:-5.644999e-01 87:7.974876e-01 88:-6.770466e-01 89:-7.136646e-01 90:6.460935e-01 91:-6.945967e-02 92:5.744653e-01 93:5.867988e-01 94:-6.956758e-02 95:4.234564e-01 96:7.879510e-01 97:-7.557052e-02 98:3.625500e-01 99:-5.575787e-01 100:8.968849e-01 101:-6.053360e-01 102:-5.285753e-01 103:-5.840091e-01 104:-3.919084e-01 105:6.287388e-01 106:7.009794e-01 107:-1.157231e-02 108:6.416627e-01 109:-2.514698e-02 110:-4.465785e-01 111:7.002143e-01 112:-1.853271e-01 113:-6.058543e-01 114:7.421288e-01 115:1.478688e-02 116:6.520929e-01 117:6.218222e-01 118:3.041786e-01 119:7.241430e-02 120:-6.303870e-01 121:3.301240e-01 122:-5.096926e-01 123:7.286901e-01 124:4.536668e-01 125:8.558415e-01 126:-6.520665e-01 127:-7.928692e-01 128:-4.078162e-01 129:2.669249e-01 130:-6.980720e-01 131:1.390987e-01 132:-3.349168e-01 133:-4.546008e-01 134:-5.343424e-01 135:2.562520e-01 136:7.993251e-01 137:6.921094e-01 138:-4.056369e-01 139:-5.781769e-01 140:-4.534134e-01 141:-4.235799e-02 142:-5.282608e-01 143:-3.744932e-01 144:-4.980063e-01 145:7.930704e-01 146:-1.681148e-01 147:-5.514462e-01 148:-3.598419e-01 149:-5.207634e-01 150:-5.555122e-01 151:-3.033484e-01 152:3.686448e-01 153:-4.269505e-01 154:-6.154776e-01 155:8.546549e-03 156:-4.693209e-01 157:-7.484499e-01 158:7.373338e-01 159:1.657011e-01 160:-6.793504e-01 161:-7.394844e-01 162:2.628021e-01 163:-6.835906e-01 164:-4.325743e-01 165:1.498599e-01 166:4.117216e-01 167:4.401431e-01 168:-3.790365e-01 169:-3.923049e-01 170:-5.504858e-01 171:-1.054823e-01 172:-4.120342e-01 173:7.186594e-01 174:-4.667853e-01 175:4.188513e-01 176:4.075500e-01 177:-6.579574e-01 178:6.109628e-01 179:-6.712590e-01 180:5.653732e-01 181:2.051469e-01 182:-6.082419e-02 183:6.246455e-01 184:-5.886386e-01 185:5.574398e-01 186:-3.713409e-01 187:-9.069035e-01 188:-5.988796e-01 189:3.502083e-01 190:2.523829e-01 191:-8.056750e-01 192:-6.493939e-01 193:7.597501e-01 194:-7.401292e-01 195:5.509746e-01 196:8.050314e-01 197:-1.038586e-01 198:6.494197e-01 199:4.430708e-01 
0.158289330671877 0:4.650853e-01 1:-2.401204e-01 2:2.752976e-01 3:5.197547e-01 4:4.674322e-01 5:-7.534464e-01 6:2.402853e-01 7:-5.735321e-01 8:-6.915120e-01 9:1.086372e-01 10:7.893883e-02 11:-4.153112e-01 12:-8.010038e-01 13:2.610610e-01 14:3.746177e-01 15:-1.755994e-01 16:5.226264e-01 17:6.310376e-01 18:4.496509e-01 19:-8.666550e-01 20:1.955907e-01 21:-8.558385e-01 22:5.615983e-02 23:1.589625e-01 24:-4.919027e-01 25:6.862472e-01 26:2.944931e-01 27:-2.778345e-01 28:2.980171e-01 29:3.264074e-01 30:-6.235030e-01 31:6.288477e-01 32:4.722044e-01 33:-6.457910e-01 34:-2.720196e-01 35:7.246515e-01 36:8.219607e-01 37:-3.119221e-01 38:6.177825e-01 39:-7.009950e-01 40:6.123537e-01 41:2.059618e-01 42:5.958271e-01 43:4.959265e-01 44:-2.007490e-01 45:-4.388766e-01 46:5.712111e-01 47:-6.327327e-01 48:6.285959e-01 49:-4.854217e-01 50:-2.653523e-01 51:-3.735119e-01 52:-4.068218e-01 53:-9.438724e-01 54:5.551333e-01 55:-3.324438e-01 56:1.987754e-01 57:3.525823e-01 58:3.581040e-01 59:1.521080e-01 60:-7.882011e-01 61:1.758511e-01 62:-6.552872e-01 63:4.738251e-01 64:3.188706e-01 65:3.744478e-01 66:6.633499e-01 67:7.356869e-01 68:7.731930e-01 69:7.660029e-01 70:-4.811391e-01 71:5.364525e-01 72:4.390133e-01 73:4.559257e-01 74:7.024184e-01 75:-6.678765e-01 76:3.854145e-01 77:-7.081008e-01 78:3.267004e-01 79:7.261672e-01 80:-4.056696e-01 81:5.535741e-01 82:-6.177200e-01 83:-8.435404e-01 84:6.005513e-01 85:4.355551e-01 86:-2.100812e-01 87:8.161473e-01 88:3.253707e-01 89:-4.952702e-01 90:6.318024e-01 91:-1.655447e-01 92:7.263467e-01 93:5.681696e-01 94:-4.820514e-01 95:2.379232e-01 96:9.131680e-01 97:3.458454e-01 98:6.793816e-01 99:-6.216281e-01 100:8.254406e-01 101:-6.237156e-01 102:-7.647784e-01 103:-6.090616e-01 104:-6.604360e-01 105:6.604365e-01 106:4.443903e-01 107:3.679765e-01 108:6.377026e-01 109:-2.852831e-01 110:-2.907471e-02 111:2.321652e-01 112:7.539693e-02 113:-9.241098e-01 114:6.386965e-01 115:-9.501748e-02 116:-4.744305e-01 117:3.555315e-02 118:8.631568e-01 119:6.465451e-01 120:-3.558573e-01 121:2.241780e-01 122:-3.263873e-01 123:3.232106e-01 124:2.078528e-01 125:5.279363e-01 126:-6.482288e-01 127:-6.569954e-01 128:-4.670733e-01 129:4.301490e-01 130:-6.219318e-01 131:-2.184679e-01 132:-3.791830e-01 133:-4.265552e-01 134:-4.287907e-01 135:2.906867e-02 136:7.024722e-01 137:5.883761e-01 138:-7.304327e-01 139:-6.012372e-01 140:-2.909209e-01 141:5.992909e-02 142:-1.676872e-01 143:-3.851631e-01 144:-1.426487e-01 145:7.168113e-01 146:2.708577e-01 147:-7.415484e-01 148:1.481584e-01 149:-8.347645e-01 150:-4.919045e-01 151:-5.476290e-01 152:1.121726e-01 153:-2.050102e-01 154:-4.494082e-01 155:2.380662e-01 156:1.787180e-01 157:-8.212643e-01 158:7.268740e-01 159:8.744799e-02 160:-6.133914e-01 161:-4.547483e-01 162:1.618718e-01 163:-6.626547e-01 164:-3.680907e-01 165:-6.583286e-01 166:3.649619e-02 167:6.372395e-01 168:-2.575337e-01 169:-6.500265e-01 170:-4.811089e-01 171:2.866103e-01 172:-6.658765e-01 173:5.256027e-01 174:-8.005361e-01 175:2.725072e-01 176:3.340803e-01 177:-6.899161e-01 178:6.123299e-01 179:-5.350857e-01 180:5.998428e-01 181:3.857526e-01 182:-2.421492e-01 183:1.226653e-01 184:-7.214974e-01 185:5.183432e-01 186:-4.317198e-01 187:-8.232381e-01 188:-5.333070e-01 189:5.304981e-01 190:1.539027e-01 191:-7.298328e-01 192:-8.128617e-01 193:7.908657e-01 194:-3.703998e-01 195:9.241056e-01 196:1.548938e-01 197:3.577284e-01 198:5.058583e-01 199:5.019664e-01 
0.011640657520595066 0:6.315224e-01 1:-1.815028e-01 2:-3.497602e-01 3:4.556901e-01 4:5.340831e-01 5:-3.482790e-01 6:-2.192431e-01 7:-2.573833e-01 8:-6.735804e-01 9:8.626495e-02 10:-1.106096e-01 11:-5.255609e-02 12:-5.735264e-01 13:2.458237e-01 14:4.980045e-01 15:-2.952558e-01 16:4.294446e-01 17:5.011387e-01 18:6.868964e-01 19:-5.377006e-01 20:7.606323e-02 21:-7.579439e-01 22:2.129106e-01 23:-9.565979e-03 24:-9.188504e-01 25:1.721328e-01 26:-3.685673e-01 27:6.714977e-01 28:5.824980e-01 29:3.047054e-01 30:-7.044146e-01 31:6.824157e-01 32:3.841582e-01 33:-9.388214e-01 34:3.922273e-02 35:7.290407e-01 36:8.830312e-01 37:-2.586488e-01 38:5.429316e-01 39:-6.723442e-01 40:6.939952e-01 41:5.735460e-01 42:6.204924e-01 43:1.775602e-01 44:-2.052418e-01 45:-1.577499e-01 46:5.451615e-01 47:-4.771928e-01 48:6.227704e-01 49:-5.612851e-01 50:-1.833237e-01 51:-4.573874e-01 52:2.970533e-01 53:-5.123534e-01 54:5.655002e-01 55:-6.043068e-02 56:7.057293e-03 57:3.026949e-01 58:3.561511e-01 59:-5.814508e-01 60:-9.817295e-01 61:2.833368e-01 62:-5.313186e-01 63:7.491157e-01 64:7.409421e-01 65:9.512445e-02 66:2.681164e-01 67:5.697147e-01 68:7.003363e-01 69:6.827445e-01 70:-5.549698e-01 71:3.259048e-01 72:-3.149480e-02 73:6.799014e-01 74:5.193358e-01 75:-6.606114e-01 76:6.244824e-01 77:-1.383077e-01 78:8.075601e-01 79:6.027852e-01 80:-6.924758e-01 81:5.069560e-01 82:-3.247665e-01 83:-6.374126e-01 84:5.695790e-01 85:2.660078e-01 86:-4.244786e-04 87:7.429548e-01 88:-6.074009e-01 89:-5.689193e-01 90:5.794729e-01 91:2.096338e-01 92:7.235353e-01 93:5.381319e-01 94:-4.242913e-02 95:6.412481e-01 96:7.246174e-01 97:1.294374e-01 98:1.847729e-01 99:-6.614532e-01 100:6.958931e-01 101:-7.957144e-01 102:-6.200988e-01 103:-7.060321e-01 104:-6.475504e-01 105:4.639390e-01 106:8.425846e-01 107:7.395623e-02 108:2.257058e-01 109:-2.624705e-01 110:2.165673e-01 111:1.572902e-01 112:4.445499e-01 113:-7.719024e-01 114:5.772146e-01 115:1.421354e-03 116:-1.200236e-01 117:1.201325e-01 118:6.626229e-01 119:1.464797e-01 120:-5.879408e-01 121:2.516921e-01 122:-5.305653e-01 123:6.169814e-01 124:3.438002e-01 125:5.561017e-01 126:-6.209904e-01 127:-7.294431e-01 128:-2.436633e-01 129:4.156456e-01 130:-4.771875e-01 131:-2.753192e-01 132:-3.133578e-01 133:-3.251144e-01 134:-7.490036e-01 135:-2.573963e-02 136:7.910031e-01 137:6.993189e-01 138:-5.847089e-01 139:-2.318659e-01 140:-6.185817e-01 141:1.789580e-01 142:-3.057420e-01 143:-5.536510e-01 144:-4.755999e-01 145:5.031777e-01 146:2.087194e-01 147:-5.449930e-01 148:5.198963e-02 149:-4.421722e-01 150:-7.796345e-01 151:-3.273633e-01 152:5.003215e-01 153:-5.891993e-01 154:-4.362442e-01 155:3.620806e-01 156:-5.127195e-01 157:-9.613083e-01 158:7.651292e-01 159:-4.184854e-01 160:-7.742824e-01 161:-7.962629e-01 162:-3.569404e-02 163:-6.967231e-01 164:-3.770547e-01 165:-1.551001e-01 166:2.391300e-02 167:5.414788e-01 168:-4.660807e-01 169:-4.692609e-01 170:-1.607353e-01 171:1.407083e-01 172:-4.450204e-01 173:5.789599e-01 174:6.126048e-01 175:-1.533160e-01 176:4.781224e-01 177:-7.251584e-01 178:7.477629e-01 179:-4.350968e-01 180:7.020144e-01 181:1.564178e-01 182:-6.377711e-01 183:2.476491e-01 184:-7.889663e-01 185:5.645318e-01 186:-5.221683e-01 187:-8.294165e-01 188:-7.831168e-01 189:-8.073714e-02 190:2.909736e-01 191:-7.542628e-01 192:-9.429261e-01 193:6.154977e-01 194:-4.158504e-01 195:5.423744e-01 196:2.233565e-01 197:-6.044875e-02 198:3.722849e-01 199:6.312843e-01 
-0.025572722723370855 0:3.799314e-01 1:2.889833e-02 2:5.108903e-01 3:5.823853e-01 4:6.589479e-01 5:-3.706520e-01 6:-4.579183e-01 7:-5.240465e-01 8:-5.741776e-01 9:3.893581e-01 10:-8.964590e-02 11:-3.354523e-01 12:-6.593828e-01 13:1.516542e-01 14:3.269763e-01 15:-3.791782e-02 16:4.715395e-01 17:4.604201e-02 18:5.378249e-01 19:-7.730566e-01 20:4.628522e-01 21:-7.088726e-01 22:3.688667e-01 23:3.951880e-02 24:-3.812015e-01 25:5.821552e-01 26:3.283249e-01 27:-3.146983e-01 28:4.040229e-01 29:3.273564e-01 30:-7.407288e-01 31:6.262068e-01 32:6.449694e-01 33:-5.504025e-01 34:-2.011917e-02 35:7.444520e-01 36:6.667152e-01 37:-1.691559e-01 38:7.191565e-01 39:-8.462557e-01 40:8.148368e-01 41:1.399541e-01 42:7.669865e-01 43:4.855075e-01 44:-1.624449e-01 45:-6.172677e-01 46:6.009526e-01 47:-3.846685e-01 48:5.619450e-01 49:-5.485665e-01 50:-2.997942e-01 51:7.715830e-02 52:-5.506789e-02 53:-6.176937e-01 54:2.888322e-01 55:-3.133027e-01 56:-1.839085e-01 57:7.845744e-01 58:3.910674e-01 59:-7.396156e-01 60:-8.694385e-01 61:5.796023e-01 62:-5.783870e-01 63:5.121412e-01 64:2.219072e-01 65:2.080058e-01 66:7.911683e-01 67:6.207287e-01 68:5.130812e-01 69:7.236114e-01 70:-6.052302e-01 71:6.709416e-01 72:-2.478199e-01 73:5.325154e-01 74:3.680787e-01 75:-7.586735e-01 76:7.430724e-01 77:-1.328477e-01 78:2.646272e-01 79:7.526591e-01 80:-5.780970e-01 81:5.056235e-01 82:-3.684534e-01 83:-7.541364e-01 84:4.430306e-01 85:4.012166e-01 86:-6.392839e-01 87:6.295005e-01 88:-5.771054e-01 89:-5.817445e-01 90:5.322102e-01 91:-2.746522e-01 92:9.247735e-01 93:5.563954e-01 94:-2.099658e-01 95:1.929490e-01 96:5.789001e-01 97:3.696584e-01 98:-4.474522e-02 99:-7.079961e-01 100:7.872369e-01 101:-8.215543e-01 102:-9.464944e-01 103:-7.208398e-01 104:-5.501904e-01 105:9.017530e-01 106:8.836264e-01 107:3.717196e-01 108:9.322805e-01 109:-2.918759e-01 110:-2.813519e-01 111:7.005163e-01 112:-7.217211e-02 113:-8.901472e-01 114:7.148892e-01 115:-1.339531e-01 116:3.837482e-01 117:-1.336142e-01 118:4.523184e-01 119:4.521587e-01 120:-6.295327e-01 121:3.033469e-01 122:-3.467040e-01 123:3.477374e-01 124:3.299735e-01 125:6.456577e-01 126:-8.931259e-01 127:-8.279414e-01 128:-6.853314e-01 129:1.034335e-01 130:-4.220171e-01 131:-4.297383e-01 132:-4.307776e-01 133:-1.357043e-01 134:-6.222811e-01 135:-4.729962e-01 136:7.948018e-01 137:6.029361e-01 138:-7.850340e-01 139:-4.853654e-03 140:-8.226840e-01 141:-4.631440e-01 142:1.882318e-01 143:-4.001344e-01 144:-8.182362e-01 145:5.929312e-01 146:1.238186e-01 147:-6.405705e-01 148:5.575710e-01 149:-3.852119e-01 150:-5.239473e-01 151:-1.468669e-01 152:-2.321741e-02 153:-4.871283e-01 154:-3.829353e-01 155:4.686137e-01 156:-1.592724e-01 157:-7.981587e-01 158:7.500689e-01 159:-4.938159e-01 160:-5.068045e-01 161:-7.896944e-01 162:-5.205841e-01 163:-7.286977e-01 164:-4.971838e-01 165:-3.132322e-01 166:-1.347126e-01 167:2.137448e-01 168:-6.239688e-01 169:-5.052716e-01 170:9.192464e-02 171:-5.994877e-01 172:-4.153703e-01 173:5.966287e-01 174:-5.225238e-01 175:-1.357762e-01 176:1.560531e-01 177:-7.810681e-01 178:7.910624e-01 179:-5.849041e-01 180:7.130045e-01 181:3.864772e-01 182:-3.347968e-01 183:-3.009626e-01 184:-5.206600e-01 185:7.522354e-01 186:-5.084617e-01 187:-7.455026e-01 188:-7.567724e-01 189:4.609040e-01 190:6.667677e-01 191:-8.273126e-01 192:-8.039755e-01 193:6.847702e-01 194:-5.892691e-01 195:5.984927e-01 196:3.640935e-02 197:2.700437e-01 198:2.931529e-01 199:7.342475e-01 
0.06561417651642865 0:5.280715e-01 1:1.697113e-01 2:2.845638e-01 3:4.920355e-01 4:5.423490e-01 5:-1.584806e-01 6:-6.005264e-01 7:-6.155537e-01 8:-7.836877e-01 9:3.033493e-01 10:-2.512583e-02 11:-3.086581e-01 12:-6.425199e-01 13:5.198525e-02 14:4.454441e-01 15:-4.703255e-01 16:6.185979e-01 17:1.850574e-01 18:5.659183e-01 19:-6.961271e-01 20:7.057552e-01 21:-8.773230e-01 22:5.398024e-01 23:1.578415e-01 24:-6.810016e-01 25:6.580828e-01 26:3.459780e-01 27:-1.595720e-01 28:5.882362e-01 29:1.584010e-01 30:-5.684694e-01 31:5.792327e-01 32:5.701881e-01 33:-3.444675e-01 34:3.456737e-02 35:9.344996e-01 36:8.057952e-01 37:-2.186237e-01 38:2.635899e-01 39:-6.944733e-01 40:7.866684e-01 41:6.256223e-02 42:6.241684e-01 43:1.917836e-01 44:-6.136410e-01 45:-5.813345e-01 46:4.371615e-01 47:-7.130675e-01 48:8.474555e-01 49:-3.323197e-01 50:2.548144e-01 51:2.412212e-03 52:2.792434e-02 53:-4.486716e-01 54:3.621397e-01 55:-5.530453e-01 56:-3.594643e-01 57:5.373032e-01 58:1.098144e-01 59:-4.446130e-01 60:-6.237118e-01 61:2.486222e-01 62:-5.700596e-01 63:6.061176e-01 64:5.055727e-01 65:2.248248e-01 66:5.478679e-01 67:6.725304e-01 68:6.267763e-01 69:6.597790e-01 70:-4.217890e-01 71:6.740350e-01 72:-2.017578e-01 73:4.096488e-01 74:6.909964e-01 75:-7.188836e-01 76:5.271819e-01 77:-1.496671e-01 78:3.781125e-01 79:7.698409e-01 80:-3.667692e-01 81:5.738101e-01 82:-4.127976e-01 83:-6.764739e-01 84:4.383296e-01 85:3.623895e-01 86:-4.319562e-01 87:8.025407e-01 88:-1.473087e-01 89:-5.070142e-01 90:6.087292e-01 91:-4.778792e-01 92:5.488946e-01 93:3.119037e-01 94:-2.643497e-01 95:2.414690e-01 96:8.592293e-01 97:3.434747e-01 98:3.027313e-01 99:-6.208506e-01 100:8.268254e-01 101:-5.533286e-01 102:-6.478359e-01 103:-7.041238e-01 104:-2.866934e-01 105:9.634357e-01 106:7.452649e-01 107:1.952418e-01 108:7.803854e-01 109:-2.934110e-01 110:-3.168809e-01 111:2.355741e-01 112:3.050561e-01 113:-7.693909e-01 114:7.682547e-01 115:-9.740744e-01 116:2.682131e-02 117:-1.847238e-02 118:4.137936e-01 119:6.351707e-01 120:-4.099211e-01 121:9.561407e-01 122:-5.343819e-01 123:5.147396e-01 124:6.446183e-01 125:9.285984e-01 126:-7.679458e-01 127:-8.277084e-01 128:-5.119237e-01 129:4.492495e-01 130:-5.478847e-01 131:-6.816908e-02 132:-4.248788e-01 133:-6.285188e-01 134:-5.831370e-01 135:-1.109677e-01 136:8.162260e-01 137:5.517766e-01 138:-4.533439e-01 139:-1.997570e-02 140:-8.730830e-01 141:-1.852109e-01 142:-9.979149e-03 143:-5.455031e-01 144:-2.350501e-01 145:4.506686e-01 146:4.732389e-02 147:-7.074002e-01 148:-1.880447e-01 149:-7.104282e-01 150:-4.047870e-01 151:-5.917995e-01 152:1.613105e-01 153:-2.744424e-01 154:-2.311926e-01 155:1.397213e-01 156:-4.371718e-01 157:-6.989273e-01 158:8.377840e-01 159:-8.489631e-01 160:-6.132760e-01 161:-3.201513e-01 162:-4.251532e-02 163:-6.255006e-01 164:-4.811938e-01 165:-6.343669e-01 166:-1.937392e-01 167:2.545604e-01 168:-3.540670e-01 169:-7.483636e-01 170:-1.900746e-01 171:3.826889e-01 172:-7.447107e-01 173:3.321248e-01 174:-8.909708e-02 175:-1.534697e-01 176:6.120064e-01 177:-8.411242e-01 178:7.560779e-01 179:-5.965864e-01 180:7.896817e-01 181:8.967875e-01 182:-4.200912e-01 183:5.489489e-01 184:-8.055354e-01 185:4.774312e-01 186:-6.862820e-01 187:-7.666655e-01 188:-7.812954e-01 189:-1.060497e-01 190:4.813029e-01 191:-6.335447e-01 192:-9.398406e-01 193:7.141546e-01 194:-1.840556e-01 195:6.717469e-01 196:5.411145e-01 197:3.326150e-01 198:5.101597e-01 199:5.278553e-01 
-0.15272167522921287 0:5.913138e-01 1:-3.389964e-01 2:4.231282e-02 3:5.875079e-01 4:4.622705e-01 5:-5.319581e-01 6:-6.117107e-01 7:-7.018729e-01 8:-4.961976e-01 9:-2.247847e-01 10:-4.274183e-01 11:3.321641e-01 12:-1.000000e+00 13:1.381633e-01 14:4.731780e-01 15:-2.046067e-01 16:5.320220e-01 17:1.126448e-03 18:7.087756e-01 19:-6.987914e-01 20:5.835919e-01 21:-6.786408e-01 22:1.994687e-01 23:1.623470e-01 24:-5.669368e-01 25:6.182158e-01 26:-1.319276e-01 27:1.649005e-01 28:3.687427e-01 29:3.556661e-02 30:-6.092848e-01 31:6.735597e-01 32:6.419957e-01 33:-5.576339e-01 34:2.391630e-01 35:7.962605e-01 36:5.824070e-01 37:2.298358e-01 38:3.471492e-01 39:-6.719003e-01 40:3.924710e-01 41:5.154541e-01 42:5.011190e-01 43:5.291942e-01 44:-3.757473e-01 45:-5.009056e-01 46:5.169168e-01 47:-3.071354e-01 48:4.179276e-01 49:-4.103321e-01 50:4.593062e-01 51:-5.111952e-01 52:2.126173e-01 53:-7.284364e-01 54:4.291205e-01 55:-5.770455e-01 56:-5.159211e-04 57:2.824529e-01 58:4.770665e-01 59:-5.522848e-01 60:-7.140635e-01 61:4.233929e-01 62:-6.167671e-01 63:7.993395e-01 64:6.996161e-01 65:1.851675e-01 66:3.348547e-01 67:8.342379e-01 68:6.083611e-01 69:6.759835e-01 70:-4.859658e-01 71:9.161295e-01 72:7.848293e-01 73:2.225056e-01 74:6.558049e-01 75:-7.838924e-01 76:6.490587e-01 77:-4.151687e-01 78:4.753010e-01 79:8.045006e-01 80:-7.447605e-01 81:6.056703e-01 82:-7.732735e-01 83:-8.486365e-01 84:6.157348e-01 85:-6.620762e-02 86:-6.981938e-01 87:7.483978e-01 88:-5.419427e-01 89:-5.134799e-01 90:5.429407e-01 91:-2.768901e-01 92:7.507977e-01 93:5.704945e-01 94:-4.106896e-01 95:4.066585e-01 96:3.561275e-01 97:4.074158e-01 98:2.324877e-01 99:-7.737526e-01 100:8.320582e-01 101:-8.241885e-01 102:-8.940064e-01 103:-7.416338e-01 104:-4.868162e-01 105:7.437046e-01 106:8.712491e-01 107:5.063767e-01 108:2.637945e-01 109:-3.375567e-01 110:1.572827e-02 111:1.985008e-01 112:8.597207e-02 113:-7.290098e-01 114:5.887445e-01 115:-1.486092e-01 116:1.994222e-02 117:4.010334e-02 118:5.241576e-01 119:7.604842e-01 120:-6.001149e-01 121:2.874025e-02 122:-5.936233e-01 123:5.636974e-01 124:3.650919e-01 125:4.783744e-01 126:-7.538091e-01 127:-6.211891e-01 128:-2.643407e-01 129:6.013013e-01 130:-5.739378e-01 131:-3.045425e-02 132:-2.810046e-01 133:-5.320609e-02 134:-5.931022e-01 135:3.723880e-01 136:7.190478e-01 137:6.674635e-01 138:-5.479923e-01 139:-3.671049e-01 140:-7.305787e-01 141:9.059988e-02 142:-2.831411e-01 143:-2.412620e-01 144:-4.018212e-01 145:5.863766e-01 146:5.123056e-01 147:-6.649024e-01 148:-1.017936e-01 149:-4.743458e-01 150:-6.247410e-01 151:-6.474895e-01 152:3.141285e-01 153:-4.175569e-01 154:-3.147802e-01 155:-2.523552e-01 156:-4.839027e-01 157:-5.932104e-01 158:6.158507e-01 159:-2.550017e-02 160:-6.125256e-01 161:-4.376724e-01 162:2.563091e-01 163:-6.219444e-01 164:-5.783752e-01 165:-4.902395e-01 166:-6.645496e-01 167:1.676323e-01 168:-7.344552e-01 169:-6.148219e-01 170:3.622301e-01 171:3.018533e-01 172:-4.515685e-01 173:6.991924e-01 174:-6.844721e-01 175:3.261793e-01 176:4.408101e-01 177:-6.858631e-01 178:8.632430e-01 179:-6.384072e-01 180:6.370241e-01 181:1.081574e-01 182:-6.269048e-01 183:1.872435e-01 184:-7.819417e-01 185:6.118719e-01 186:-4.862435e-01 187:-7.231359e-01 188:-7.616617e-01 189:-2.457084e-01 190:3.592459e-01 191:-7.893335e-01 192:-8.199203e-01 193:6.746987e-01 194:-6.968675e-01 195:5.304885e-01 196:-4.020341e-01 197:2.210365e-01 198:5.969337e-01 199:6.998399e-01 
0.12017154247609596 0:2.854648e-01 1:-3.542177e-01 2:1.417791e-01 3:1.283864e-01 4:7.259131e-01 5:-2.400552e-01 6:-6.280896e-02 7:-5.678248e-01 8:-5.143885e-01 9:-2.783615e-01 10:-1.433863e-01 11:-2.541759e-01 12:-6.373634e-01 13:-2.146176e-01 14:4.811516e-01 15:-5.122289e-01 16:5.012772e-01 17:5.000607e-01 18:6.267002e-01 19:-5.328757e-01 20:8.774552e-01 21:-8.031537e-01 22:1.060509e-01 23:2.909972e-01 24:-5.363700e-01 25:2.100599e-01 26:-3.771634e-01 27:1.663616e-01 28:1.801088e-01 29:1.970479e-01 30:-6.110409e-01 31:6.972205e-01 32:4.337186e-01 33:-6.667369e-01 34:-4.226665e-01 35:6.616310e-01 36:6.767450e-01 37:-3.092766e-01 38:4.627220e-01 39:-6.750513e-01 40:6.386863e-01 41:3.725448e-01 42:7.231649e-01 43:7.263070e-01 44:-5.324524e-01 45:3.275857e-01 46:4.140800e-01 47:-2.059070e-01 48:6.943605e-01 49:-3.187440e-01 50:-1.354879e-02 51:-8.370805e-02 52:-1.759652e-02 53:-5.789940e-01 54:4.893993e-01 55:-7.405468e-01 56:6.350300e-03 57:5.467391e-01 58:6.254918e-03 59:-2.579175e-01 60:-6.512239e-01 61:-8.834349e-02 62:-5.979340e-01 63:5.875562e-01 64:6.415143e-01 65:3.563892e-01 66:8.108010e-01 67:7.567802e-01 68:3.940106e-01 69:6.558505e-01 70:-6.414411e-01 71:7.624812e-01 72:2.165236e-01 73:3.527295e-01 74:7.997393e-01 75:-7.223006e-01 76:6.258124e-01 77:-9.635409e-01 78:6.510652e-01 79:7.851669e-01 80:-5.525628e-01 81:7.731849e-01 82:-6.157500e-01 83:-7.693898e-01 84:5.104966e-01 85:5.017718e-01 86:-2.778756e-01 87:6.259648e-01 88:4.967162e-01 89:-6.572345e-01 90:5.257288e-01 91:-4.506218e-01 92:6.939711e-01 93:7.202867e-01 94:-1.455468e-01 95:-1.180082e-02 96:6.941854e-01 97:4.930215e-01 98:5.921235e-01 99:-7.158932e-01 100:6.995591e-01 101:-7.874063e-01 102:-6.066542e-01 103:-5.220329e-01 104:-6.077493e-01 105:6.979519e-01 106:9.888019e-01 107:4.570983e-01 108:6.132101e-01 109:-6.045317e-01 110:6.981543e-02 111:5.822472e-01 112:-1.308595e-01 113:-6.712346e-01 114:5.434616e-01 115:-6.051738e-01 116:2.625180e-01 117:-1.700307e-01 118:4.686682e-01 119:-1.136151e-01 120:-5.749042e-01 121:3.402031e-01 122:-2.314570e-01 123:7.242038e-01 124:2.917562e-01 125:5.040856e-01 126:-5.722999e-01 127:-8.506720e-01 128:-1.549943e-01 129:1.688249e-01 130:-3.923052e-01 131:-4.998140e-01 132:-5.776431e-01 133:-1.326545e-01 134:-5.656313e-01 135:2.581007e-01 136:7.025960e-01 137:6.285894e-01 138:-4.241046e-01 139:3.135607e-02 140:-5.078544e-01 141:-1.255313e-01 142:-3.035989e-01 143:-5.213044e-01 144:-2.196927e-01 145:7.383017e-01 146:3.962572e-01 147:-7.182802e-01 148:-2.136884e-01 149:-4.032694e-01 150:-8.067446e-01 151:-2.443146e-01 152:-4.096534e-02 153:-3.597843e-01 154:-4.621892e-01 155:1.807430e-01 156:3.454203e-02 157:-8.239739e-01 158:6.983283e-01 159:-2.273407e-01 160:-6.633225e-01 161:-6.343547e-01 162:1.421706e-01 163:-6.148802e-01 164:-5.340835e-01 165:-1.360551e-01 166:-1.269494e-01 167:5.126464e-01 168:-5.987608e-01 169:-5.439600e-01 170:-2.699197e-01 171:4.206213e-01 172:-6.717360e-01 173:5.381662e-01 174:-6.164138e-01 175:1.414270e-01 176:3.280033e-01 177:-7.017658e-01 178:5.546301e-01 179:-5.332310e-01 180:8.010750e-01 181:7.187139e-02 182:-4.161925e-01 183:3.734230e-01 184:-6.105468e-01 185:8.327904e-01 186:-5.819856e-01 187:-8.031875e-01 188:-5.014848e-01 189:9.201383e-01 190:5.937471e-01 191:-6.941263e-01 192:-6.620601e-01 193:6.998863e-01 194:-4.271322e-01 195:4.862721e-01 196:1.879582e-02 197:1.612664e-01 198:6.510513e-01 199:7.008749e-01 
-0.1538571699744904 0:2.602917e-01 1:-6.222974e-02 2:5.051057e-01 3:2.474716e-01 4:4.366377e-01 5:-4.973565e-01 6:-4.861150e-02 7:-3.729508e-01 8:-7.222194e-01 9:-4.335747e-01 10:-3.567729e-01 11:-1.603961e-01 12:-8.153400e-01 13:1.935247e-01 14:2.764006e-01 15:-2.739832e-01 16:5.338523e-01 17:-1.517461e-01 18:6.846596e-01 19:-4.840065e-01 20:3.155837e-01 21:-9.424161e-01 22:4.647955e-02 23:8.870330e-02 24:-5.636539e-01 25:-1.075931e-01 26:-3.066837e-01 27:3.293295e-01 28:7.966473e-01 29:-6.924377e-02 30:-6.478166e-01 31:6.368594e-01 32:5.942590e-01 33:-4.545385e-01 34:-2.131497e-01 35:7.818392e-01 36:7.293155e-01 37:-9.780925e-02 38:4.702876e-01 39:-8.110905e-01 40:4.304842e-01 41:9.546798e-01 42:5.491494e-01 43:1.604304e-01 44:-1.912941e-01 45:-7.229795e-02 46:5.812543e-01 47:-4.194466e-01 48:6.546429e-01 49:-3.219454e-01 50:-4.087826e-01 51:-5.601942e-02 52:1.078552e-02 53:-8.656726e-01 54:1.919430e-01 55:-4.428896e-01 56:8.471878e-02 57:9.405210e-02 58:-8.922306e-02 59:-1.553003e-01 60:-6.818553e-01 61:6.382953e-01 62:-6.294874e-01 63:7.065775e-01 64:6.977247e-01 65:6.428867e-01 66:5.428873e-01 67:6.072542e-01 68:4.949545e-01 69:7.334209e-01 70:-3.974622e-01 71:5.437538e-01 72:-3.332782e-01 73:2.594036e-01 74:6.230464e-01 75:-8.371966e-01 76:6.750228e-01 77:-4.996841e-02 78:3.799688e-01 79:8.064649e-01 80:-5.073754e-01 81:7.704156e-01 82:-6.465420e-01 83:-7.809061e-01 84:6.165294e-01 85:5.886434e-01 86:-1.688939e-01 87:7.586849e-01 88:-4.470796e-01 89:-3.512033e-01 90:6.630277e-01 91:-3.483996e-01 92:5.528213e-01 93:3.169015e-01 94:-2.573249e-01 95:3.324147e-01 96:6.467745e-01 97:3.549225e-01 98:-1.444362e-01 99:-8.479880e-01 100:7.325314e-01 101:-8.636038e-01 102:-5.961170e-01 103:-6.323497e-01 104:-3.048364e-01 105:7.340773e-01 106:7.764590e-01 107:4.648071e-01 108:4.945796e-01 109:-5.737293e-01 110:-4.228486e-02 111:4.528828e-01 112:2.277600e-01 113:-7.487857e-01 114:4.458757e-01 115:-3.220367e-01 116:-1.472781e-01 117:-2.173867e-02 118:7.810235e-01 119:3.008695e-01 120:-4.360311e-01 121:-9.928000e-02 122:-6.277330e-01 123:4.216056e-01 124:1.044924e-01 125:5.119758e-01 126:-6.560707e-01 127:-5.969980e-01 128:-4.874317e-01 129:2.981833e-01 130:-2.753237e-01 131:-7.780332e-01 132:-3.842103e-01 133:-2.626831e-01 134:-3.648769e-01 135:2.025724e-01 136:7.848984e-01 137:6.879783e-01 138:-5.351552e-01 139:2.493107e-01 140:-6.007379e-01 141:-1.235904e-01 142:1.995220e-01 143:-3.381267e-01 144:-1.729917e-02 145:6.277537e-01 146:1.186204e-02 147:-6.375667e-01 148:-1.649975e-01 149:-6.102517e-01 150:-8.320906e-01 151:1.280281e-02 152:-1.534105e-01 153:-5.602819e-01 154:-1.240545e-01 155:-1.531583e-01 156:1.835989e-01 157:-8.995537e-01 158:8.187911e-01 159:-1.108521e-01 160:-4.894359e-01 161:-5.932019e-01 162:-2.773769e-01 163:-6.982352e-01 164:-6.183840e-01 165:1.618448e-01 166:-5.937961e-02 167:3.723378e-01 168:-5.104982e-01 169:-4.764799e-01 170:-1.631613e-01 171:5.786599e-01 172:-2.597405e-01 173:5.429582e-01 174:2.021615e-01 175:1.553186e-01 176:4.133988e-01 177:-6.800153e-01 178:6.420977e-01 179:-4.417871e-01 180:9.282648e-01 181:8.576100e-01 182:-5.290239e-01 183:3.022478e-01 184:-6.685228e-01 185:4.050498e-01 186:-2.605902e-01 187:-9.276525e-01 188:-7.328568e-01 189:-3.684788e-02 190:8.403492e-01 191:-7.554650e-01 192:-7.224976e-01 193:7.693694e-01 194:-4.143466e-01 195:3.404957e-01 196:-2.072259e-01 197:-1.827667e-02 198:5.770982e-01 199:7.522519e-01 
-6.689052055936487 0:7.564002e-01 1:-2.961361e-01 2:-3.524443e-01 3:3.046816e-01 4:3.488560e-01 5:-6.517988e-01 6:1.006599e-02 7:-5.202051e-01 8:-6.018304e-01 9:5.359045e-01 10:-2.880500e-01 11:-7.046870e-02 12:-7.427121e-01 13:3.195092e-01 14:1.057306e-01 15:-6.473990e-01 16:6.460440e-01 17:5.154744e-01 18:7.455844e-01 19:-8.334928e-01 20:4.611869e-01 21:-7.865289e-01 22:5.492432e-01 23:4.140455e-01 24:-6.266029e-01 25:6.478390e-01 26:2.822101e-01 27:-3.284814e-01 28:5.481525e-01 29:2.436814e-01 30:-6.728384e-01 31:7.700739e-01 32:7.620236e-01 33:-6.485177e-01 34:-6.189454e-01 35:6.780365e-01 36:6.010075e-01 37:-7.224001e-01 38:3.559142e-01 39:-5.894724e-01 40:7.192365e-01 41:1.209732e-02 42:6.056457e-01 43:1.671850e-01 44:-2.065499e-01 45:1.631885e-01 46:7.307674e-01 47:-7.094555e-01 48:7.760862e-01 49:-3.517503e-01 50:-1.766704e-01 51:-2.601910e-01 52:2.952334e-01 53:-6.353998e-01 54:6.606378e-01 55:-6.108659e-01 56:1.442296e-01 57:5.002246e-02 58:-3.632583e-01 59:-4.577784e-01 60:-8.472037e-01 61:3.012725e-01 62:-5.647873e-01 63:5.949055e-01 64:4.144920e-01 65:2.338549e-01 66:4.369621e-01 67:7.223510e-01 68:5.473469e-01 69:8.112889e-01 70:-6.140966e-01 71:3.275219e-01 72:6.335338e-01 73:7.411170e-01 74:4.712324e-01 75:-5.913328e-01 76:6.278113e-01 77:-1.427254e-01 78:5.285645e-01 79:6.480873e-01 80:-6.020123e-01 81:9.778791e-01 82:-5.855084e-01 83:-7.485264e-01 84:3.931599e-01 85:4.869937e-01 86:-4.784954e-01 87:7.529241e-01 88:1.964372e-01 89:-6.917960e-01 90:7.231651e-01 91:-4.420295e-01 92:8.481063e-01 93:3.887619e-01 94:-2.484040e-01 95:2.274201e-01 96:6.753784e-01 97:1.324391e-01 98:4.021670e-01 99:-8.175382e-01 100:7.403795e-01 101:-8.372035e-01 102:-6.318078e-01 103:-5.504601e-01 104:-4.304179e-01 105:6.246657e-01 106:5.659210e-01 107:3.620227e-01 108:3.790714e-01 109:-5.171792e-01 110:-2.367408e-01 111:2.187835e-01 112:-2.978274e-02 113:-6.157709e-01 114:5.527177e-01 115:-6.999256e-02 116:9.639895e-02 117:1.764451e-01 118:8.534740e-01 119:-1.652623e-02 120:-7.060432e-01 121:4.142656e-01 122:-4.330851e-01 123:5.073669e-01 124:4.972634e-01 125:5.592147e-01 126:-7.850298e-01 127:-6.975974e-01 128:-3.086868e-01 129:2.759645e-01 130:-4.531188e-01 131:8.953130e-02 132:-5.077920e-01 133:-6.597847e-01 134:-2.549309e-01 135:-2.207978e-01 136:8.355067e-01 137:7.032210e-01 138:-6.914770e-01 139:-1.520480e-01 140:-6.668835e-01 141:5.259606e-02 142:8.811749e-02 143:-5.113444e-01 144:-3.107837e-01 145:3.780927e-01 146:8.027641e-01 147:-6.800771e-01 148:-5.691716e-02 149:-5.937672e-01 150:-5.395520e-01 151:-1.420722e-01 152:2.576241e-01 153:-3.663467e-01 154:-1.886474e-01 155:3.911460e-01 156:-3.786558e-01 157:-6.687397e-01 158:7.298151e-01 159:-7.676226e-01 160:-6.186053e-01 161:-4.200874e-01 162:3.035769e-01 163:-7.205799e-01 164:-4.197055e-01 165:-2.432626e-01 166:3.752101e-01 167:6.786980e-01 168:-8.413469e-01 169:-4.821368e-01 170:-2.753620e-01 171:8.620237e-02 172:-6.115516e-01 173:5.261618e-01 174:-6.294990e-02 175:4.801434e-01 176:2.963671e-01 177:-6.362470e-01 178:5.804460e-01 179:-5.663030e-01 180:6.708852e-01 181:5.424898e-01 182:-1.335555e-01 183:3.188066e-02 184:-4.744442e-01 185:8.683022e-01 186:-5.185638e-01 187:-7.387640e-01 188:-7.164282e-01 189:5.837043e-01 190:9.712643e-02 191:-7.027413e-01 192:-6.901204e-01 193:7.850505e-01 194:-3.707242e-01 195:6.570268e-01 196:2.705957e-01 197:4.590230e-01 198:5.784774e-01 199:5.363817e-01 
-0.003926861591925901 0:7.439754e-01 1:1.361672e-01 2:3.768865e-01 3:5.255162e-01 4:5.568469e-01 5:-3.104871e-01 6:-1.548864e-01 7:-7.921762e-01 8:-7.801740e-01 9:5.188459e-01 10:-1.119051e-01 11:-2.497015e-01 12:-7.780361e-01 13:3.615905e-01 14:1.249581e-01 15:-2.703341e-01 16:5.258441e-01 17:4.339270e-01 18:7.436489e-01 19:-7.468576e-01 20:6.799738e-01 21:-7.105074e-01 22:4.781978e-01 23:4.768569e-01 24:-4.075442e-01 25:5.088384e-01 26:-1.707141e-01 27:-4.537655e-03 28:4.775765e-01 29:3.858981e-01 30:-7.194868e-01 31:8.248811e-01 32:3.602653e-02 33:-6.430142e-01 34:1.529348e-01 35:7.895579e-01 36:6.764752e-01 37:-3.927121e-02 38:4.496990e-01 39:-4.706553e-01 40:8.127010e-01 41:2.145999e-01 42:7.315958e-01 43:3.885693e-01 44:8.873028e-02 45:2.075678e-01 46:4.021979e-01 47:-4.351570e-01 48:5.927814e-01 49:-5.044875e-01 50:-3.125534e-02 51:-3.788902e-01 52:-4.673921e-01 53:-6.368031e-01 54:5.672069e-01 55:-2.916066e-01 56:-6.003828e-01 57:2.263785e-01 58:3.225198e-04 59:-6.489434e-02 60:-8.041557e-01 61:6.252092e-01 62:-7.314179e-01 63:7.351827e-01 64:6.780777e-01 65:9.034627e-02 66:5.744263e-01 67:6.521541e-01 68:4.119899e-01 69:7.742702e-01 70:-5.728194e-01 71:4.772180e-01 72:3.027946e-01 73:1.392594e-01 74:5.695611e-01 75:-7.404375e-01 76:5.179694e-01 77:1.830941e-01 78:5.038854e-01 79:4.840896e-01 80:-5.322151e-01 81:6.530254e-01 82:-5.955508e-01 83:-7.727189e-01 84:3.108472e-01 85:4.477247e-01 86:-4.623024e-01 87:5.077294e-01 88:-3.859313e-01 89:-4.797459e-01 90:7.226133e-01 91:-6.159034e-01 92:7.858360e-01 93:3.994466e-01 94:-3.439916e-01 95:3.457447e-01 96:5.991825e-01 97:4.399094e-01 98:1.249086e-01 99:-7.727812e-01 100:6.582444e-01 101:-7.100723e-01 102:-5.876122e-01 103:-6.949714e-01 104:-2.731799e-01 105:5.655103e-01 106:7.682534e-01 107:3.734495e-01 108:5.858192e-01 109:-3.038022e-01 110:-3.761888e-01 111:2.906167e-01 112:2.206349e-01 113:-8.726185e-01 114:4.715418e-01 115:-1.220558e-01 116:-2.392751e-01 117:-7.759321e-02 118:6.124045e-01 119:-4.351957e-02 120:-5.214468e-01 121:-3.383528e-02 122:-3.925518e-01 123:4.893124e-01 124:5.884734e-01 125:7.189855e-01 126:-8.155902e-01 127:-7.656293e-01 128:-3.833774e-01 129:2.644370e-01 130:-5.602274e-01 131:-7.761387e-02 132:-5.514265e-01 133:1.207384e-01 134:-6.101817e-01 135:1.002971e-02 136:6.930357e-01 137:8.237647e-01 138:-2.905844e-01 139:-6.734905e-01 140:-5.371796e-01 141:-1.789275e-01 142:-3.309117e-01 143:-5.999713e-01 144:-5.044880e-01 145:6.070345e-01 146:9.341379e-02 147:-7.336003e-01 148:1.226601e-01 149:-4.796515e-01 150:-6.578749e-01 151:-9.728715e-02 152:5.341616e-01 153:-4.954338e-01 154:-4.535838e-01 155:2.875776e-01 156:-4.793414e-01 157:-7.406122e-01 158:6.671918e-01 159:3.105813e-02 160:-5.129420e-01 161:-7.307188e-01 162:-3.379921e-01 163:-7.212385e-01 164:-6.223934e-01 165:-1.729863e-01 166:-4.046548e-01 167:2.537184e-01 168:-8.568236e-01 169:-7.989143e-01 170:-3.439671e-01 171:2.478335e-01 172:-5.588227e-01 173:7.979681e-01 174:-2.153958e-01 175:2.805395e-01 176:4.439170e-01 177:-6.945685e-01 178:6.992541e-01 179:-4.622894e-01 180:4.552853e-01 181:3.646567e-01 182:-5.020489e-01 183:6.029206e-02 184:-6.762813e-01 185:7.648279e-01 186:-6.450072e-01 187:-6.626237e-01 188:-6.415754e-01 189:-4.319018e-03 190:6.905531e-01 191:-7.166012e-01 192:-8.664532e-01 193:6.621653e-01 194:-3.348885e-01 195:4.894737e-01 196:4.081618e-02 197:7.174070e-01 198:4.043535e-01 199:6.322098e-01 
-0.036932843409145044 0:8.093982e-01 1:-3.384636e-01 2:1.586372e-01 3:3.883082e-01 4:5.359882e-01 5:-2.872483e-01 6:-2.705649e-01 7:-5.734635e-01 8:-6.613354e-01 9:1.431362e-02 10:-8.554955e-01 11:1.345103e-01 12:-4.563067e-01 13:2.308705e-01 14:7.148692e-01 15:1.764028e-01 16:4.828541e-01 17:5.250731e-01 18:6.960138e-01 19:-7.080666e-01 20:4.937688e-01 21:-6.367604e-01 22:2.431742e-01 23:4.082387e-01 24:-5.882465e-01 25:1.645476e-01 26:4.749730e-01 27:-1.400651e-01 28:2.259336e-01 29:-3.030133e-02 30:-7.035688e-01 31:6.820995e-01 32:3.307860e-01 33:-5.432566e-01 34:-6.954427e-02 35:8.926757e-01 36:8.293198e-01 37:-3.852809e-01 38:3.301910e-01 39:-8.308077e-01 40:6.832629e-01 41:-7.493127e-03 42:6.148620e-01 43:-2.397483e-01 44:-1.753777e-01 45:-8.009910e-02 46:5.505071e-01 47:-1.095011e-01 48:6.598862e-01 49:-3.573589e-01 50:-4.274296e-01 51:-2.498656e-01 52:7.099711e-02 53:-9.539375e-01 54:3.695415e-01 55:-6.518781e-01 56:-4.153190e-01 57:7.859853e-01 58:8.315919e-02 59:-5.422826e-01 60:-7.785497e-01 61:5.985830e-01 62:-6.797593e-01 63:6.125944e-01 64:5.656802e-01 65:1.289268e-01 66:7.993983e-01 67:7.189392e-01 68:5.482771e-01 69:7.881168e-01 70:-4.406356e-01 71:7.690147e-01 72:1.783878e-01 73:3.378700e-01 74:5.979775e-01 75:-7.612600e-01 76:6.514367e-01 77:1.521165e-01 78:5.357308e-01 79:7.308269e-01 80:-4.824012e-01 81:5.322590e-01 82:-5.687548e-01 83:-6.985317e-01 84:4.188626e-01 85:5.283136e-02 86:-4.963584e-01 87:6.460194e-01 88:-2.347969e-01 89:-3.247725e-01 90:5.605196e-01 91:-2.048585e-02 92:7.129412e-01 93:6.299622e-01 94:-6.550720e-01 95:1.517653e-01 96:7.046896e-01 97:5.301215e-01 98:6.108565e-01 99:-6.602441e-01 100:5.989865e-01 101:-8.774869e-01 102:-4.735255e-01 103:-6.309308e-01 104:-5.085421e-01 105:6.661788e-01 106:8.975130e-01 107:5.529264e-01 108:4.380606e-01 109:-9.984641e-02 110:-3.460085e-01 111:5.824211e-01 112:6.640413e-03 113:-7.540583e-01 114:7.231337e-01 115:2.689994e-01 116:-3.117142e-01 117:1.834373e-01 118:6.357890e-01 119:1.454706e-01 120:-6.264798e-01 121:6.615285e-01 122:-5.006862e-01 123:4.976500e-01 124:2.758598e-01 125:5.110952e-01 126:-7.470114e-01 127:-6.306152e-01 128:-5.871390e-01 129:1.769952e-01 130:-4.779800e-01 131:-2.431921e-01 132:-5.889193e-01 133:-1.104315e-02 134:-5.657854e-01 135:-4.198647e-01 136:7.558893e-01 137:7.038181e-01 138:-3.366602e-01 139:3.988810e-01 140:-4.837439e-01 141:-5.073041e-01 142:-6.531996e-01 143:-4.892505e-01 144:-2.251379e-01 145:3.496086e-01 146:2.221589e-01 147:-5.684011e-01 148:-7.702951e-01 149:-2.714979e-01 150:-6.628844e-01 151:-3.176583e-01 152:-1.525454e-01 153:-1.681353e-01 154:-2.952834e-01 155:-1.455246e-01 156:-5.415232e-01 157:-8.112483e-01 158:7.544306e-01 159:-6.233619e-01 160:-6.997085e-01 161:-4.717844e-01 162:5.386316e-01 163:-7.434712e-01 164:-2.860634e-01 165:-8.667773e-01 166:-8.144992e-02 167:3.714335e-01 168:-3.306230e-01 169:-6.987779e-01 170:-3.946815e-01 171:2.703017e-01 172:-4.804170e-01 173:5.272554e-01 174:5.462075e-02 175:-4.889637e-03 176:5.761896e-01 177:-7.622371e-01 178:7.464920e-01 179:-6.378811e-01 180:8.549039e-01 181:1.755547e-01 182:-5.272025e-01 183:8.705041e-01 184:-6.431156e-01 185:6.323551e-01 186:-4.869248e-01 187:-6.719690e-01 188:-5.168444e-01 189:1.789447e-01 190:2.715212e-01 191:-7.307553e-01 192:-6.650130e-01 193:6.556921e-01 194:-4.478616e-01 195:5.816811e-01 196:-5.287021e-01 197:9.710880e-02 198:3.839879e-01 199:4.098046e-01 
0.08249642736828167 0:6.711976e-01 1:-1.744036e-01 2:1.937230e-01 3:6.447998e-01 4:4.802875e-01 5:-3.719949e-01 6:3.421888e-01 7:-5.718405e-01 8:-5.419655e-01 9:3.955262e-03 10:-2.389241e-01 11:-3.064839e-01 12:-6.856908e-01 13:-2.630794e-01 14:2.886934e-01 15:-6.327236e-01 16:7.918400e-01 17:4.476385e-01 18:4.830462e-01 19:-5.796208e-01 20:3.502996e-03 21:-7.358046e-01 22:2.465160e-01 23:8.538814e-02 24:-7.507062e-01 25:3.572750e-01 26:2.884748e-01 27:2.668194e-01 28:2.587469e-01 29:-3.647455e-02 30:-6.519556e-01 31:7.446908e-01 32:6.108691e-01 33:-5.012637e-01 34:-3.306045e-01 35:8.533017e-01 36:8.873491e-01 37:-1.795499e-01 38:3.490516e-01 39:-6.692132e-01 40:7.471252e-01 41:-9.141975e-02 42:7.607734e-01 43:1.263303e-01 44:-6.344751e-02 45:-6.368769e-02 46:5.863834e-01 47:-5.821094e-01 48:5.567836e-01 49:-2.410861e-01 50:-9.598772e-02 51:-4.949555e-01 52:3.949684e-01 53:-6.938975e-01 54:2.378991e-01 55:-5.643359e-01 56:1.791707e-01 57:4.285632e-01 58:-7.814542e-02 59:-2.903275e-01 60:-7.316337e-01 61:3.091919e-01 62:-4.207405e-01 63:6.793114e-01 64:3.770573e-01 65:-1.117443e-01 66:6.129328e-01 67:7.285308e-01 68:5.126729e-01 69:7.420613e-01 70:-6.089423e-01 71:6.427174e-01 72:-7.396271e-02 73:6.575506e-01 74:3.337988e-01 75:-7.890782e-01 76:5.949236e-01 77:-2.387629e-01 78:4.764109e-01 79:9.114568e-01 80:-4.012736e-01 81:6.498432e-01 82:-4.282943e-01 83:-7.678519e-01 84:7.291042e-01 85:-3.660867e-02 86:-3.047916e-01 87:8.082085e-01 88:-3.916148e-01 89:-5.890435e-01 90:6.854728e-01 91:-7.134857e-01 92:7.987323e-01 93:4.262192e-01 94:-7.036238e-01 95:4.317043e-01 96:6.613235e-01 97:3.238348e-01 98:1.164007e-01 99:-5.736368e-01 100:6.496127e-01 101:-7.717242e-01 102:-7.075785e-01 103:-5.834558e-01 104:-3.448077e-01 105:8.020302e-01 106:7.814430e-01 107:4.240518e-01 108:5.875466e-01 109:-2.139953e-01 110:2.794198e-01 111:3.299301e-01 112:-2.823157e-01 113:-8.594269e-01 114:6.342212e-01 115:4.365620e-01 116:-4.082083e-01 117:1.665823e-01 118:5.925805e-01 119:2.550235e-01 120:-8.386251e-01 121:3.692855e-01 122:-6.693851e-01 123:4.741643e-01 124:1.226643e-01 125:7.684211e-01 126:-6.781713e-01 127:-6.623619e-01 128:-3.413902e-01 129:4.357400e-01 130:-7.152880e-01 131:-5.585010e-01 132:-5.139504e-01 133:1.894069e-01 134:-4.428311e-01 135:-3.136932e-01 136:7.064301e-01 137:4.070765e-01 138:-2.315419e-01 139:4.735150e-01 140:-2.074105e-01 141:1.623336e-01 142:-2.316755e-01 143:-6.618192e-01 144:-3.316754e-01 145:7.696668e-01 146:5.002152e-01 147:-8.070780e-01 148:-4.597517e-01 149:-6.151024e-01 150:-4.463332e-01 151:-4.576548e-01 152:-1.221034e-01 153:-4.365669e-01 154:-5.662750e-01 155:-3.549702e-01 156:-3.198554e-01 157:-8.711528e-01 158:7.277324e-01 159:-6.201717e-01 160:-5.910924e-01 161:-3.602439e-01 162:-1.784487e-01 163:-5.810029e-01 164:-2.117570e-01 165:-2.837127e-02 166:-4.841186e-02 167:4.679808e-01 168:-6.355381e-01 169:-6.413222e-01 170:-8.955134e-02 171:3.374574e-01 172:-5.191961e-01 173:8.314571e-01 174:1.421948e-02 175:6.060237e-01 176:3.542210e-01 177:-6.027212e-01 178:5.561735e-01 179:-5.585632e-01 180:6.876702e-01 181:4.403813e-01 182:-5.834114e-01 183:4.003850e-01 184:-7.840984e-01 185:7.596905e-01 186:-3.316671e-01 187:-6.772480e-01 188:-5.441339e-01 189:4.012712e-01 190:1.729623e-01 191:-7.577186e-01 192:-8.530344e-01 193:7.852852e-01 194:-5.816850e-01 195:4.341843e-01 196:-4.622633e-01 197:8.837961e-02 198:6.148195e-01 199:8.610468e-01 
0.08091714456597998 0:5.770918e-01 1:-2.778364e-01 2:5.999382e-01 3:-3.309556e-02 4:7.744761e-01 5:-3.522886e-01 6:1.646739e-01 7:-6.900837e-01 8:-8.945589e-01 9:3.725184e-01 10:-2.918354e-01 11:-2.720919e-01 12:-7.184702e-01 13:2.486770e-01 14:4.984788e-01 15:-3.030735e-01 16:6.442001e-01 17:5.068490e-01 18:6.445532e-01 19:-6.281247e-01 20:6.621947e-01 21:-7.884550e-01 22:-1.656573e-02 23:1.399478e-01 24:-7.371320e-01 25:9.217639e-01 26:8.440937e-02 27:2.175659e-02 28:7.959283e-01 29:-2.144014e-01 30:-5.772765e-01 31:6.661215e-01 32:4.919788e-01 33:-6.909671e-01 34:-4.827974e-02 35:7.579259e-01 36:6.840440e-01 37:-1.102570e-01 38:5.545257e-01 39:-8.530818e-01 40:4.801492e-01 41:5.560739e-01 42:5.826504e-01 43:1.585057e-01 44:-3.500178e-01 45:4.278704e-02 46:3.599840e-01 47:-2.762355e-01 48:6.876860e-01 49:-4.938581e-01 50:-4.356695e-01 51:-3.287394e-01 52:-2.814391e-01 53:-5.823173e-01 54:4.392028e-01 55:-7.275995e-01 56:3.839614e-01 57:3.778404e-01 58:1.064504e-01 59:-2.148542e-01 60:-8.491325e-01 61:4.097128e-01 62:-3.746585e-01 63:6.311138e-01 64:6.117919e-01 65:2.181434e-01 66:3.334833e-01 67:7.370079e-01 68:4.817700e-01 69:6.422483e-01 70:-4.630560e-01 71:5.623725e-01 72:3.348444e-01 73:4.581885e-01 74:5.699207e-01 75:-7.228419e-01 76:7.362687e-01 77:2.710301e-01 78:1.556353e-01 79:8.822414e-01 80:-4.971599e-01 81:6.506336e-01 82:-4.230288e-01 83:-6.331197e-01 84:7.299938e-01 85:1.135983e-01 86:-6.014080e-01 87:8.415593e-01 88:2.049493e-02 89:-5.433771e-01 90:7.031625e-01 91:-3.456946e-01 92:8.332473e-01 93:4.085919e-01 94:-2.628971e-01 95:3.307322e-02 96:6.135165e-01 97:1.958060e-01 98:-1.342193e-01 99:-6.269915e-01 100:8.692343e-01 101:-6.215986e-01 102:-4.576993e-01 103:-6.373504e-01 104:-3.735295e-01 105:6.468283e-01 106:6.164594e-01 107:5.578793e-02 108:3.990900e-01 109:-1.749332e-01 110:-1.993719e-01 111:5.309037e-01 112:-1.918710e-01 113:-7.280188e-01 114:4.374803e-01 115:7.730710e-02 116:-4.090429e-01 117:8.397493e-02 118:5.885974e-01 119:2.771567e-01 120:-4.837116e-01 121:5.454682e-01 122:-8.676499e-01 123:7.275371e-01 124:4.309529e-01 125:6.630316e-01 126:-7.246191e-01 127:-5.949836e-01 128:-3.149440e-01 129:1.776271e-01 130:-9.455744e-01 131:-3.937992e-01 132:-2.607798e-01 133:-2.885787e-01 134:-3.865713e-01 135:-7.779709e-01 136:6.975000e-01 137:7.848440e-01 138:-4.259332e-01 139:1.676726e-01 140:-5.837902e-01 141:-3.738112e-01 142:1.093926e-01 143:-6.738853e-01 144:-8.289660e-02 145:7.107485e-01 146:4.936191e-01 147:-6.585258e-01 148:-2.308589e-01 149:-3.807419e-01 150:-6.178688e-01 151:-5.280850e-01 152:-5.168850e-02 153:-1.734207e-01 154:-3.921471e-01 155:-7.881974e-02 156:-5.600934e-02 157:-7.010787e-01 158:7.317142e-01 159:1.868885e-02 160:-6.753581e-01 161:-6.026085e-01 162:1.542760e-02 163:-5.149425e-01 164:-5.539475e-01 165:-3.916183e-01 166:1.577090e-01 167:5.100816e-01 168:-6.512560e-01 169:-2.877412e-01 170:-1.983480e-01 171:-5.051688e-02 172:-2.328529e-01 173:9.908211e-01 174:-9.106024e-01 175:8.220476e-01 176:1.363643e-02 177:-6.245643e-01 178:6.296791e-01 179:-8.758421e-01 180:5.735005e-01 181:3.876385e-01 182:-2.551880e-01 183:5.157107e-01 184:-4.248194e-01 185:6.891659e-01 186:-7.901882e-01 187:-8.155548e-01 188:-1.000000e+00 189:1.366234e-01 190:5.133252e-01 191:-7.669437e-01 192:-7.515434e-01 193:7.276199e-01 194:-3.232721e-01 195:8.329604e-01 196:3.431936e-01 197:3.420273e-02 198:3.480074e-01 199:6.842000e-01 
-0.09441848764799121 0:6.394250e-01 1:-1.485311e-01 2:3.607539e-01 3:3.728346e-01 4:3.627988e-01 5:-6.380272e-01 6:2.149387e-01 7:-6.097794e-01 8:-7.928333e-01 9:8.765121e-02 10:1.056101e-01 11:-1.445026e-01 12:-8.589362e-01 13:-4.471246e-02 14:4.819858e-01 15:-2.180965e-01 16:7.149356e-01 17:1.889363e-01 18:7.241788e-01 19:-6.818873e-01 20:2.793064e-01 21:-7.947749e-01 22:3.262723e-01 23:6.620489e-02 24:-5.310807e-01 25:3.231922e-01 26:5.648649e-01 27:2.714187e-01 28:5.985155e-01 29:-7.160713e-02 30:-4.951418e-01 31:5.456286e-01 32:3.473249e-01 33:-8.528090e-01 34:1.713009e-01 35:9.142958e-01 36:7.109988e-01 37:-3.982939e-01 38:5.472300e-01 39:-7.349525e-01 40:5.527653e-01 41:-6.497720e-02 42:8.264014e-01 43:5.260219e-01 44:-2.116554e-01 45:-5.620034e-01 46:3.036697e-01 47:-6.007045e-01 48:5.450860e-01 49:-2.772315e-01 50:5.495268e-02 51:-2.862775e-01 52:-2.028535e-01 53:-6.686083e-01 54:2.816486e-01 55:-5.103047e-01 56:-4.317853e-01 57:7.980645e-01 58:-1.523059e-01 59:-3.052748e-01 60:-7.122172e-01 61:-2.682502e-02 62:-5.659113e-01 63:7.344704e-01 64:5.258605e-01 65:3.354617e-01 66:6.197965e-01 67:6.710333e-01 68:4.986439e-01 69:8.559137e-01 70:-5.390920e-01 71:8.930022e-01 72:4.462500e-01 73:7.056370e-01 74:5.006973e-01 75:-6.365966e-01 76:5.387635e-01 77:-8.275878e-01 78:3.787369e-01 79:8.039657e-01 80:-5.750332e-01 81:5.194608e-01 82:-6.113069e-01 83:-6.825054e-01 84:5.824686e-01 85:3.913515e-02 86:-6.303935e-01 87:6.557090e-01 88:-3.123924e-01 89:-5.208648e-01 90:4.426418e-01 91:-1.552257e-01 92:8.658009e-01 93:5.100085e-01 94:-1.841481e-01 95:2.164780e-01 96:7.200862e-01 97:1.620046e-01 98:2.634522e-01 99:-5.971123e-01 100:7.551383e-01 101:-7.909038e-01 102:-4.852212e-01 103:-7.997617e-01 104:-6.856101e-01 105:7.856192e-01 106:7.976427e-01 107:7.184311e-01 108:6.289698e-01 109:-4.296155e-01 110:1.845730e-01 111:5.847983e-01 112:4.967308e-01 113:-6.787794e-01 114:8.414836e-01 115:3.301779e-01 116:1.999161e-01 117:-1.544017e-01 118:3.559440e-01 119:2.702303e-01 120:-5.215207e-01 121:-2.211477e-01 122:-3.259205e-01 123:6.710036e-01 124:3.229516e-01 125:5.347489e-01 126:-6.953234e-01 127:-5.498537e-01 128:-5.442201e-01 129:3.339186e-01 130:-4.217759e-01 131:-7.774188e-02 132:-4.821634e-01 133:-6.550433e-01 134:-4.925055e-01 135:-3.556574e-01 136:8.097551e-01 137:6.786198e-01 138:-2.968331e-01 139:1.314557e-01 140:-5.047776e-01 141:-2.870401e-01 142:-3.847504e-01 143:-2.240936e-01 144:-3.738721e-01 145:5.045717e-01 146:8.199950e-02 147:-6.993485e-01 148:2.869113e-01 149:-4.894494e-01 150:-5.878316e-01 151:-3.739084e-01 152:3.187981e-01 153:-4.263369e-01 154:-3.177659e-01 155:3.889706e-01 156:4.183548e-02 157:-6.051565e-01 158:7.544057e-01 159:3.479002e-01 160:-6.405977e-01 161:-5.464705e-01 162:-4.916439e-01 163:-5.312374e-01 164:-4.375609e-01 165:-2.767712e-01 166:-1.473122e-01 167:3.876209e-01 168:-3.166985e-01 169:-5.385551e-01 170:-1.756320e-01 171:1.898527e-01 172:-5.674740e-01 173:6.169291e-01 174:-6.681622e-01 175:4.607978e-02 176:7.807047e-01 177:-8.731554e-01 178:6.172807e-01 179:-4.951607e-01 180:8.507674e-01 181:1.353336e-01 182:-5.451556e-01 183:7.662230e-01 184:-8.609361e-01 185:8.278594e-01 186:-6.691319e-01 187:-6.691793e-01 188:-5.127033e-01 189:3.910059e-01 190:1.511932e-01 191:-7.343776e-01 192:-6.529763e-01 193:6.964081e-01 194:-3.526190e-01 195:5.157364e-01 196:-6.800593e-03 197:1.621866e-01 198:2.563181e-01 199:6.971669e-01 
